digraph Tree {
node [shape=box, style="rounded", color="black", fontname=helvetica] ;
edge [fontname=helvetica] ;
0 [label="adjusted score <= 0.1637\ngini = 0.0622\nsamples = 311\nvalue = [301, 10]\nclass = Non-NRPS"] ;
1 [label="weighted e value <= 9.1531\ngini = 0.4444\nsamples = 3\nvalue = [1, 2]\nclass = Non-NRPS"] ;
0 -> 1 [labeldistance=2.5, labelangle=45, headlabel="True"] ;
2 [label="gini = 0.0\nsamples = 2\nvalue = [0, 2]\nclass = Non-NRPS"] ;
1 -> 2 ;
3 [label="gini = 0.0\nsamples = 1\nvalue = [1, 0]\nclass = Non-NRPS"] ;
1 -> 3 ;
4 [label="length <= 11165.0\ngini = 0.0506\nsamples = 308\nvalue = [300, 8]\nclass = Non-NRPS"] ;
0 -> 4 [labeldistance=2.5, labelangle=-45, headlabel="False"] ;
5 [label="weighted e value <= 142.4945\ngini = 0.0446\nsamples = 307\nvalue = [300, 7]\nclass = Non-NRPS"] ;
4 -> 5 ;
6 [label="adjusted score <= 0.3304\ngini = 0.1099\nsamples = 120\nvalue = [113, 7]\nclass = Non-NRPS"] ;
5 -> 6 ;
7 [label="weighted e value <= 0.0014\ngini = 0.375\nsamples = 8\nvalue = [6, 2]\nclass = Non-NRPS"] ;
6 -> 7 ;
8 [label="gini = 0.0\nsamples = 6\nvalue = [6, 0]\nclass = Non-NRPS"] ;
7 -> 8 ;
9 [label="gini = 0.0\nsamples = 2\nvalue = [0, 2]\nclass = Non-NRPS"] ;
7 -> 9 ;
10 [label="length <= 243.5\ngini = 0.0853\nsamples = 112\nvalue = [107, 5]\nclass = Non-NRPS"] ;
6 -> 10 ;
11 [label="weighted e value <= 31.7335\ngini = 0.4444\nsamples = 3\nvalue = [2, 1]\nclass = Non-NRPS"] ;
10 -> 11 ;
12 [label="gini = 0.0\nsamples = 2\nvalue = [2, 0]\nclass = Non-NRPS"] ;
11 -> 12 ;
13 [label="gini = 0.0\nsamples = 1\nvalue = [0, 1]\nclass = Non-NRPS"] ;
11 -> 13 ;
14 [label="length <= 347.5\ngini = 0.0707\nsamples = 109\nvalue = [105, 4]\nclass = Non-NRPS"] ;
10 -> 14 ;
15 [label="gini = 0.0\nsamples = 50\nvalue = [50, 0]\nclass = Non-NRPS"] ;
14 -> 15 ;
16 [label="length <= 348.5\ngini = 0.1264\nsamples = 59\nvalue = [55, 4]\nclass = Non-NRPS"] ;
14 -> 16 ;
17 [label="gini = 0.0\nsamples = 2\nvalue = [0, 2]\nclass = Non-NRPS"] ;
16 -> 17 ;
18 [label="adjusted score <= 0.6068\ngini = 0.0677\nsamples = 57\nvalue = [55, 2]\nclass = Non-NRPS"] ;
16 -> 18 ;
19 [label="gini = 0.0\nsamples = 47\nvalue = [47, 0]\nclass = Non-NRPS"] ;
18 -> 19 ;
20 [label="adjusted score <= 0.6297\ngini = 0.32\nsamples = 10\nvalue = [8, 2]\nclass = Non-NRPS"] ;
18 -> 20 ;
21 [label="gini = 0.0\nsamples = 2\nvalue = [0, 2]\nclass = Non-NRPS"] ;
20 -> 21 ;
22 [label="gini = 0.0\nsamples = 8\nvalue = [8, 0]\nclass = Non-NRPS"] ;
20 -> 22 ;
23 [label="gini = 0.0\nsamples = 187\nvalue = [187, 0]\nclass = Non-NRPS"] ;
5 -> 23 ;
24 [label="gini = 0.0\nsamples = 1\nvalue = [0, 1]\nclass = Non-NRPS"] ;
4 -> 24 ;
}