digraph Tree {
node [shape=box, style="rounded", color="black", fontname=helvetica] ;
edge [fontname=helvetica] ;
0 [label="adjusted score <= 0.1446\ngini = 0.9993\nsamples = 1426\nvalue = [1, 1, 1 ..., 1, 1, 1]\nclass = gi|30407128|emb|AL646053.1|-22"] ;
1 [label="gini = 0.0\nsamples = 1\nvalue = [0, 0, 0 ..., 0, 0, 0]\nclass = gi|45005|emb|X57310.1|-5"] ;
0 -> 1 [labeldistance=2.5, labelangle=45, headlabel="True"] ;
2 [label="adjusted score <= 0.1483\ngini = 0.9993\nsamples = 1425\nvalue = [1, 1, 1 ..., 1, 1, 1]\nclass = gi|30407128|emb|AL646053.1|-22"] ;
0 -> 2 [labeldistance=2.5, labelangle=-45, headlabel="False"] ;
3 [label="gini = 0.0\nsamples = 1\nvalue = [0, 0, 0 ..., 0, 0, 0]\nclass = gi|1752727|dbj|D50308.1|-6"] ;
2 -> 3 ;
4 [label="adjusted score <= 0.1599\ngini = 0.9993\nsamples = 1424\nvalue = [1, 1, 1 ..., 1, 1, 1]\nclass = gi|30407128|emb|AL646053.1|-22"] ;
2 -> 4 ;
5 [label="gini = 0.0\nsamples = 1\nvalue = [0, 0, 0 ..., 0, 0, 0]\nclass = gi|1752727|dbj|D50308.1|-7"] ;
4 -> 5 ;
6 [label="adjusted score <= 0.1739\ngini = 0.9993\nsamples = 1423\nvalue = [1, 1, 1 ..., 1, 1, 1]\nclass = gi|30407128|emb|AL646053.1|-22"] ;
4 -> 6 ;
7 [label="gini = 0.0\nsamples = 1\nvalue = [0, 0, 0 ..., 0, 0, 0]\nclass = gi|951301122|gb|CP013140.1|-88"] ;
6 -> 7 ;
8 [label="adjusted score <= 0.1783\ngini = 0.9993\nsamples = 1422\nvalue = [1, 1, 1 ..., 1, 1, 1]\nclass = gi|30407128|emb|AL646053.1|-22"] ;
6 -> 8 ;
9 [label="gini = 0.0\nsamples = 1\nvalue = [0, 0, 0 ..., 0, 0, 0]\nclass = gi|45005|emb|X57310.1|-3"] ;
8 -> 9 ;
10 [label="adjusted score <= 0.1803\ngini = 0.9993\nsamples = 1421\nvalue = [1, 1, 1 ..., 1, 1, 1]\nclass = gi|30407128|emb|AL646053.1|-22"] ;
8 -> 10 ;
11 [label="gini = 0.5\nsamples = 2\nvalue = [0, 0, 0 ..., 0, 0, 0]\nclass = gi|365804155|gb|CP003219.1|-3"] ;
10 -> 11 ;
12 [label="adjusted score <= 0.1825\ngini = 0.9993\nsamples = 1419\nvalue = [1, 1, 1 ..., 1, 1, 1]\nclass = gi|30407128|emb|AL646053.1|-22"] ;
10 -> 12 ;
13 [label="gini = 0.0\nsamples = 1\nvalue = [0, 0, 0 ..., 0, 0, 0]\nclass = gi|772904020|gb|CP009323.1|-66"] ;
12 -> 13 ;
14 [label="adjusted score <= 0.1835\ngini = 0.9993\nsamples = 1418\nvalue = [1, 1, 1 ..., 1, 1, 1]\nclass = gi|30407128|emb|AL646053.1|-22"] ;
12 -> 14 ;
15 [label="gini = 0.0\nsamples = 1\nvalue = [0, 0, 0 ..., 0, 0, 0]\nclass = gi|347668095|gb|JN596952.1|-35"] ;
14 -> 15 ;
16 [label="adjusted score <= 0.1858\ngini = 0.9993\nsamples = 1417\nvalue = [1, 1, 1 ..., 1, 1, 1]\nclass = gi|30407128|emb|AL646053.1|-22"] ;
14 -> 16 ;
17 [label="gini = 0.5\nsamples = 2\nvalue = [0, 0, 0 ..., 0, 0, 0]\nclass = gi|930571144|gb|CP012688.1|-24"] ;
16 -> 17 ;
18 [label="adjusted score <= 0.1889\ngini = 0.9993\nsamples = 1415\nvalue = [1, 1, 1 ..., 1, 1, 1]\nclass = gi|30407128|emb|AL646053.1|-22"] ;
16 -> 18 ;
19 [label="gini = 0.0\nsamples = 1\nvalue = [0, 0, 0 ..., 0, 0, 0]\nclass = gi|578005119|gb|CP007155.1|-37"] ;
18 -> 19 ;
20 [label="adjusted score <= 0.1929\ngini = 0.9993\nsamples = 1414\nvalue = [1, 1, 1 ..., 1, 1, 1]\nclass = gi|30407128|emb|AL646053.1|-22"] ;
18 -> 20 ;
21 [label="gini = 0.0\nsamples = 1\nvalue = [0, 0, 0 ..., 0, 0, 0]\nclass = gi|520999024|gb|CP003969.1|-88"] ;
20 -> 21 ;
22 [label="adjusted score <= 0.1962\ngini = 0.9993\nsamples = 1413\nvalue = [1, 1, 1 ..., 1, 1, 1]\nclass = gi|30407128|emb|AL646053.1|-22"] ;
20 -> 22 ;
23 [label="gini = 0.0\nsamples = 1\nvalue = [0, 0, 0 ..., 0, 0, 0]\nclass = gi|826168461|gb|CP011371.1|-67"] ;
22 -> 23 ;
24 [label="adjusted score <= 0.1966\ngini = 0.9993\nsamples = 1412\nvalue = [1, 1, 1 ..., 1, 1, 1]\nclass = gi|30407128|emb|AL646053.1|-22"] ;
22 -> 24 ;
25 [label="gini = 0.0\nsamples = 1\nvalue = [0, 0, 0 ..., 0, 0, 0]\nclass = gi|52222852|gb|AY735112.1|-10"] ;
24 -> 25 ;
26 [label="adjusted score <= 0.1969\ngini = 0.9993\nsamples = 1411\nvalue = [1, 1, 1 ..., 1, 1, 1]\nclass = gi|30407128|emb|AL646053.1|-22"] ;
24 -> 26 ;
27 [label="gini = 0.0\nsamples = 1\nvalue = [0, 0, 0 ..., 0, 0, 0]\nclass = gi|520999024|gb|CP003969.1|-71"] ;
26 -> 27 ;
28 [label="adjusted score <= 0.1987\ngini = 0.9993\nsamples = 1410\nvalue = [1, 1, 1 ..., 1, 1, 1]\nclass = gi|30407128|emb|AL646053.1|-22"] ;
26 -> 28 ;
29 [label="gini = 0.0\nsamples = 1\nvalue = [0, 0, 0 ..., 0, 0, 0]\nclass = gi|520999024|gb|CP003969.1|-61"] ;
28 -> 29 ;
30 [label="adjusted score <= 0.2007\ngini = 0.9993\nsamples = 1409\nvalue = [1, 1, 1 ..., 1, 1, 1]\nclass = gi|30407128|emb|AL646053.1|-22"] ;
28 -> 30 ;
31 [label="gini = 0.0\nsamples = 1\nvalue = [0, 0, 0 ..., 0, 0, 0]\nclass = gi|347668095|gb|JN596952.1|-27"] ;
30 -> 31 ;
32 [label="adjusted score <= 0.2014\ngini = 0.9993\nsamples = 1408\nvalue = [1, 1, 1 ..., 1, 1, 1]\nclass = gi|30407128|emb|AL646053.1|-22"] ;
30 -> 32 ;
33 [label="gini = 0.5\nsamples = 2\nvalue = [0, 0, 0 ..., 0, 0, 0]\nclass = gi|83773738|dbj|AP007169.1|-3"] ;
32 -> 33 ;
34 [label="adjusted score <= 0.2032\ngini = 0.9993\nsamples = 1406\nvalue = [1, 1, 1 ..., 1, 1, 1]\nclass = gi|30407128|emb|AL646053.1|-22"] ;
32 -> 34 ;
35 [label="gini = 0.0\nsamples = 1\nvalue = [0, 0, 0 ..., 0, 0, 0]\nclass = gi|826168461|gb|CP011371.1|-63"] ;
34 -> 35 ;
36 [label="adjusted score <= 0.2047\ngini = 0.9993\nsamples = 1405\nvalue = [1, 1, 1 ..., 1, 1, 1]\nclass = gi|30407128|emb|AL646053.1|-22"] ;
34 -> 36 ;
37 [label="gini = 0.75\nsamples = 4\nvalue = [0, 0, 0 ..., 0, 0, 0]\nclass = gi|1015624003|gb|AH000059.3|-2"] ;
36 -> 37 ;
38 [label="adjusted score <= 0.2055\ngini = 0.9993\nsamples = 1401\nvalue = [1, 1, 1 ..., 1, 1, 1]\nclass = gi|30407128|emb|AL646053.1|-22"] ;
36 -> 38 ;
39 [label="gini = 0.0\nsamples = 1\nvalue = [0, 0, 0 ..., 0, 0, 0]\nclass = gi|772904020|gb|CP009323.1|-67"] ;
38 -> 39 ;
40 [label="adjusted score <= 0.2081\ngini = 0.9993\nsamples = 1400\nvalue = [1, 1, 1 ..., 1, 1, 1]\nclass = gi|30407128|emb|AL646053.1|-22"] ;
38 -> 40 ;
41 [label="gini = 0.5\nsamples = 2\nvalue = [0, 0, 0 ..., 0, 0, 0]\nclass = gi|146403799|gb|CP000494.1|-34"] ;
40 -> 41 ;
42 [label="adjusted score <= 0.211\ngini = 0.9993\nsamples = 1398\nvalue = [1, 1, 1 ..., 1, 1, 1]\nclass = gi|30407128|emb|AL646053.1|-22"] ;
40 -> 42 ;
43 [label="gini = 0.5\nsamples = 2\nvalue = [0, 0, 0 ..., 0, 0, 0]\nclass = gi|365804155|gb|CP003219.1|-20"] ;
42 -> 43 ;
44 [label="adjusted score <= 0.2138\ngini = 0.9993\nsamples = 1396\nvalue = [1, 1, 1 ..., 1, 1, 1]\nclass = gi|30407128|emb|AL646053.1|-22"] ;
42 -> 44 ;
45 [label="gini = 0.0\nsamples = 1\nvalue = [0, 0, 0 ..., 0, 0, 0]\nclass = gi|951306652|gb|CP013141.1|-66"] ;
44 -> 45 ;
46 [label="adjusted score <= 0.2167\ngini = 0.9993\nsamples = 1395\nvalue = [1, 1, 1 ..., 1, 1, 1]\nclass = gi|30407128|emb|AL646053.1|-22"] ;
44 -> 46 ;
47 [label="gini = 0.0\nsamples = 1\nvalue = [0, 0, 0 ..., 0, 0, 0]\nclass = gi|52222852|gb|AY735112.1|-6"] ;
46 -> 47 ;
48 [label="adjusted score <= 0.218\ngini = 0.9993\nsamples = 1394\nvalue = [1, 1, 1 ..., 1, 1, 1]\nclass = gi|30407128|emb|AL646053.1|-22"] ;
46 -> 48 ;
49 [label="gini = 0.0\nsamples = 1\nvalue = [0, 0, 0 ..., 0, 0, 0]\nclass = gi|299073288|emb|FP885907.1|-11"] ;
48 -> 49 ;
50 [label="adjusted score <= 0.2194\ngini = 0.9993\nsamples = 1393\nvalue = [1, 1, 1 ..., 1, 1, 1]\nclass = gi|30407128|emb|AL646053.1|-22"] ;
48 -> 50 ;
51 [label="gini = 0.0\nsamples = 1\nvalue = [0, 0, 0 ..., 0, 0, 0]\nclass = gi|238498819|ref|XM_002380604.1|-3"] ;
50 -> 51 ;
52 [label="adjusted score <= 0.2218\ngini = 0.9993\nsamples = 1392\nvalue = [1, 1, 1 ..., 1, 1, 1]\nclass = gi|30407128|emb|AL646053.1|-22"] ;
50 -> 52 ;
53 [label="gini = 0.5\nsamples = 2\nvalue = [0, 0, 0 ..., 0, 0, 0]\nclass = gi|365804155|gb|CP003219.1|-14"] ;
52 -> 53 ;
54 [label="adjusted score <= 0.2241\ngini = 0.9993\nsamples = 1390\nvalue = [1, 1, 1 ..., 1, 1, 1]\nclass = gi|30407128|emb|AL646053.1|-22"] ;
52 -> 54 ;
55 [label="gini = 0.0\nsamples = 1\nvalue = [0, 0, 0 ..., 0, 0, 0]\nclass = gi|951715918|gb|CP011131.1|-53"] ;
54 -> 55 ;
56 [label="adjusted score <= 0.2251\ngini = 0.9993\nsamples = 1389\nvalue = [1, 1, 1 ..., 1, 1, 1]\nclass = gi|30407128|emb|AL646053.1|-22"] ;
54 -> 56 ;
57 [label="gini = 0.0\nsamples = 1\nvalue = [0, 0, 0 ..., 0, 0, 0]\nclass = gi|951301122|gb|CP013140.1|-86"] ;
56 -> 57 ;
58 [label="adjusted score <= 0.226\ngini = 0.9993\nsamples = 1388\nvalue = [1, 1, 1 ..., 1, 1, 1]\nclass = gi|30407128|emb|AL646053.1|-22"] ;
56 -> 58 ;
59 [label="gini = 0.0\nsamples = 1\nvalue = [0, 0, 0 ..., 0, 0, 0]\nclass = gi|772904020|gb|CP009323.1|-49"] ;
58 -> 59 ;
60 [label="adjusted score <= 0.2286\ngini = 0.9993\nsamples = 1387\nvalue = [1, 1, 1 ..., 1, 1, 1]\nclass = gi|30407128|emb|AL646053.1|-22"] ;
58 -> 60 ;
61 [label="gini = 0.0\nsamples = 1\nvalue = [0, 0, 0 ..., 0, 0, 0]\nclass = gi|146403799|gb|CP000494.1|-26"] ;
60 -> 61 ;
62 [label="adjusted score <= 0.2319\ngini = 0.9993\nsamples = 1386\nvalue = [1, 1, 1 ..., 1, 1, 1]\nclass = gi|30407128|emb|AL646053.1|-22"] ;
60 -> 62 ;
63 [label="gini = 0.0\nsamples = 1\nvalue = [0, 0, 0 ..., 0, 0, 0]\nclass = gi|951301122|gb|CP013140.1|-93"] ;
62 -> 63 ;
64 [label="adjusted score <= 0.2362\ngini = 0.9993\nsamples = 1385\nvalue = [1, 1, 1 ..., 1, 1, 1]\nclass = gi|30407128|emb|AL646053.1|-22"] ;
62 -> 64 ;
65 [label="gini = 0.0\nsamples = 1\nvalue = [0, 0, 0 ..., 0, 0, 0]\nclass = gi|826168461|gb|CP011371.1|-42"] ;
64 -> 65 ;
66 [label="adjusted score <= 0.2392\ngini = 0.9993\nsamples = 1384\nvalue = [1, 1, 1 ..., 1, 1, 1]\nclass = gi|30407128|emb|AL646053.1|-22"] ;
64 -> 66 ;
67 [label="gini = 0.0\nsamples = 1\nvalue = [0, 0, 0 ..., 0, 0, 0]\nclass = gi|937314366|gb|CP012831.1|-31"] ;
66 -> 67 ;
68 [label="adjusted score <= 0.2394\ngini = 0.9993\nsamples = 1383\nvalue = [1, 1, 1 ..., 1, 1, 1]\nclass = gi|30407128|emb|AL646053.1|-22"] ;
66 -> 68 ;
69 [label="gini = 0.0\nsamples = 1\nvalue = [0, 0, 0 ..., 0, 0, 0]\nclass = gi|772904020|gb|CP009323.1|-17"] ;
68 -> 69 ;
70 [label="adjusted score <= 0.2396\ngini = 0.9993\nsamples = 1382\nvalue = [1, 1, 1 ..., 1, 1, 1]\nclass = gi|30407128|emb|AL646053.1|-22"] ;
68 -> 70 ;
71 [label="gini = 0.0\nsamples = 1\nvalue = [0, 0, 0 ..., 0, 0, 0]\nclass = gi|951301122|gb|CP013140.1|-6"] ;
70 -> 71 ;
72 [label="adjusted score <= 0.2402\ngini = 0.9993\nsamples = 1381\nvalue = [1, 1, 1 ..., 1, 1, 1]\nclass = gi|30407128|emb|AL646053.1|-22"] ;
70 -> 72 ;
73 [label="gini = 0.0\nsamples = 1\nvalue = [0, 0, 0 ..., 0, 0, 0]\nclass = gi|951301122|gb|CP013140.1|-46"] ;
72 -> 73 ;
74 [label="adjusted score <= 0.2407\ngini = 0.9993\nsamples = 1380\nvalue = [1, 1, 1 ..., 1, 1, 1]\nclass = gi|30407128|emb|AL646053.1|-22"] ;
72 -> 74 ;
75 [label="gini = 0.0\nsamples = 1\nvalue = [0, 0, 0 ..., 0, 0, 0]\nclass = gi|772904020|gb|CP009323.1|-31"] ;
74 -> 75 ;
76 [label="adjusted score <= 0.2412\ngini = 0.9993\nsamples = 1379\nvalue = [1, 1, 1 ..., 1, 1, 1]\nclass = gi|30407128|emb|AL646053.1|-22"] ;
74 -> 76 ;
77 [label="gini = 0.0\nsamples = 1\nvalue = [0, 0, 0 ..., 0, 0, 0]\nclass = gi|951301122|gb|CP013140.1|-84"] ;
76 -> 77 ;
78 [label="adjusted score <= 0.2427\ngini = 0.9993\nsamples = 1378\nvalue = [1, 1, 1 ..., 1, 1, 1]\nclass = gi|30407128|emb|AL646053.1|-22"] ;
76 -> 78 ;
79 [label="gini = 0.0\nsamples = 1\nvalue = [0, 0, 0 ..., 0, 0, 0]\nclass = gi|45005|emb|X57310.1|-2"] ;
78 -> 79 ;
80 [label="adjusted score <= 0.2455\ngini = 0.9993\nsamples = 1377\nvalue = [1, 1, 1 ..., 1, 1, 1]\nclass = gi|30407128|emb|AL646053.1|-22"] ;
78 -> 80 ;
81 [label="gini = 0.0\nsamples = 1\nvalue = [0, 0, 0 ..., 0, 0, 0]\nclass = gi|951306652|gb|CP013141.1|-48"] ;
80 -> 81 ;
82 [label="adjusted score <= 0.2473\ngini = 0.9993\nsamples = 1376\nvalue = [1, 1, 1 ..., 1, 1, 1]\nclass = gi|30407128|emb|AL646053.1|-22"] ;
80 -> 82 ;
83 [label="gini = 0.0\nsamples = 1\nvalue = [0, 0, 0 ..., 0, 0, 0]\nclass = gi|772904020|gb|CP009323.1|-41"] ;
82 -> 83 ;
84 [label="adjusted score <= 0.2487\ngini = 0.9993\nsamples = 1375\nvalue = [1, 1, 1 ..., 1, 1, 1]\nclass = gi|30407128|emb|AL646053.1|-22"] ;
82 -> 84 ;
85 [label="gini = 0.0\nsamples = 1\nvalue = [0, 0, 0 ..., 0, 0, 0]\nclass = gi|146403799|gb|CP000494.1|-23"] ;
84 -> 85 ;
86 [label="adjusted score <= 0.2521\ngini = 0.9993\nsamples = 1374\nvalue = [1, 1, 1 ..., 1, 1, 1]\nclass = gi|30407128|emb|AL646053.1|-22"] ;
84 -> 86 ;
87 [label="gini = 0.0\nsamples = 1\nvalue = [0, 0, 0 ..., 0, 0, 0]\nclass = gi|146403799|gb|CP000494.1|-22"] ;
86 -> 87 ;
88 [label="adjusted score <= 0.2558\ngini = 0.9993\nsamples = 1373\nvalue = [1, 1, 1 ..., 1, 1, 1]\nclass = gi|30407128|emb|AL646053.1|-22"] ;
86 -> 88 ;
89 [label="gini = 0.0\nsamples = 1\nvalue = [0, 0, 0 ..., 0, 0, 0]\nclass = gi|146403799|gb|CP000494.1|-20"] ;
88 -> 89 ;
90 [label="adjusted score <= 0.2577\ngini = 0.9993\nsamples = 1372\nvalue = [1, 1, 1 ..., 1, 1, 1]\nclass = gi|30407128|emb|AL646053.1|-22"] ;
88 -> 90 ;
91 [label="gini = 0.0\nsamples = 1\nvalue = [0, 0, 0 ..., 0, 0, 0]\nclass = gi|1046920989|gb|CP016559.1|-17"] ;
90 -> 91 ;
92 [label="adjusted score <= 0.2594\ngini = 0.9993\nsamples = 1371\nvalue = [1, 1, 1 ..., 1, 1, 1]\nclass = gi|30407128|emb|AL646053.1|-22"] ;
90 -> 92 ;
93 [label="gini = 0.0\nsamples = 1\nvalue = [0, 0, 0 ..., 0, 0, 0]\nclass = gi|772904020|gb|CP009323.1|-60"] ;
92 -> 93 ;
94 [label="adjusted score <= 0.2611\ngini = 0.9993\nsamples = 1370\nvalue = [1, 1, 1 ..., 1, 1, 1]\nclass = gi|30407128|emb|AL646053.1|-22"] ;
92 -> 94 ;
95 [label="gini = 0.0\nsamples = 1\nvalue = [0, 0, 0 ..., 0, 0, 0]\nclass = gi|578005119|gb|CP007155.1|-39"] ;
94 -> 95 ;
96 [label="adjusted score <= 0.2615\ngini = 0.9993\nsamples = 1369\nvalue = [1, 1, 1 ..., 1, 1, 1]\nclass = gi|30407128|emb|AL646053.1|-22"] ;
94 -> 96 ;
97 [label="gini = 0.0\nsamples = 1\nvalue = [0, 0, 0 ..., 0, 0, 0]\nclass = gi|937314366|gb|CP012831.1|-50"] ;
96 -> 97 ;
98 [label="adjusted score <= 0.2627\ngini = 0.9993\nsamples = 1368\nvalue = [1, 1, 1 ..., 1, 1, 1]\nclass = gi|30407128|emb|AL646053.1|-22"] ;
96 -> 98 ;
99 [label="gini = 0.5\nsamples = 2\nvalue = [0, 0, 0 ..., 0, 0, 0]\nclass = gi|365804155|gb|CP003219.1|-17"] ;
98 -> 99 ;
100 [label="adjusted score <= 0.2659\ngini = 0.9993\nsamples = 1366\nvalue = [1, 1, 1 ..., 1, 1, 1]\nclass = gi|30407128|emb|AL646053.1|-22"] ;
98 -> 100 ;
101 [label="gini = 0.5\nsamples = 2\nvalue = [0, 0, 0 ..., 0, 0, 0]\nclass = gi|365804155|gb|CP003219.1|-2"] ;
100 -> 101 ;
102 [label="adjusted score <= 0.2682\ngini = 0.9993\nsamples = 1364\nvalue = [1, 1, 1 ..., 1, 1, 1]\nclass = gi|30407128|emb|AL646053.1|-22"] ;
100 -> 102 ;
103 [label="gini = 0.0\nsamples = 1\nvalue = [0, 0, 0 ..., 0, 0, 0]\nclass = gi|347668095|gb|JN596952.1|-22"] ;
102 -> 103 ;
104 [label="adjusted score <= 0.2685\ngini = 0.9993\nsamples = 1363\nvalue = [1, 1, 1 ..., 1, 1, 1]\nclass = gi|30407128|emb|AL646053.1|-22"] ;
102 -> 104 ;
105 [label="gini = 0.0\nsamples = 1\nvalue = [0, 0, 0 ..., 0, 0, 0]\nclass = gi|578005119|gb|CP007155.1|-10"] ;
104 -> 105 ;
106 [label="adjusted score <= 0.2711\ngini = 0.9993\nsamples = 1362\nvalue = [1, 1, 1 ..., 1, 1, 1]\nclass = gi|30407128|emb|AL646053.1|-22"] ;
104 -> 106 ;
107 [label="gini = 0.0\nsamples = 1\nvalue = [0, 0, 0 ..., 1, 0, 0]\nclass = gi|951306652|gb|CP013141.1|-67"] ;
106 -> 107 ;
108 [label="adjusted score <= 0.2741\ngini = 0.9993\nsamples = 1361\nvalue = [1, 1, 1 ..., 0, 1, 1]\nclass = gi|30407128|emb|AL646053.1|-22"] ;
106 -> 108 ;
109 [label="gini = 0.0\nsamples = 1\nvalue = [0, 0, 0 ..., 0, 0, 0]\nclass = gi|520999024|gb|CP003969.1|-89"] ;
108 -> 109 ;
110 [label="adjusted score <= 0.2756\ngini = 0.9993\nsamples = 1360\nvalue = [1, 1, 1 ..., 0, 1, 1]\nclass = gi|30407128|emb|AL646053.1|-22"] ;
108 -> 110 ;
111 [label="gini = 0.6667\nsamples = 3\nvalue = [0, 0, 0 ..., 0, 0, 0]\nclass = gi|930571144|gb|CP012688.1|-22"] ;
110 -> 111 ;
112 [label="adjusted score <= 0.2773\ngini = 0.9993\nsamples = 1357\nvalue = [1, 1, 1 ..., 0, 1, 1]\nclass = gi|30407128|emb|AL646053.1|-22"] ;
110 -> 112 ;
113 [label="gini = 0.0\nsamples = 1\nvalue = [0, 0, 0 ..., 0, 0, 0]\nclass = gi|146403799|gb|CP000494.1|-41"] ;
112 -> 113 ;
114 [label="adjusted score <= 0.2781\ngini = 0.9993\nsamples = 1356\nvalue = [1, 1, 1 ..., 0, 1, 1]\nclass = gi|30407128|emb|AL646053.1|-22"] ;
112 -> 114 ;
115 [label="gini = 0.0\nsamples = 1\nvalue = [0, 0, 0 ..., 0, 0, 0]\nclass = gi|772904020|gb|CP009323.1|-36"] ;
114 -> 115 ;
116 [label="adjusted score <= 0.2787\ngini = 0.9993\nsamples = 1355\nvalue = [1, 1, 1 ..., 0, 1, 1]\nclass = gi|30407128|emb|AL646053.1|-22"] ;
114 -> 116 ;
117 [label="gini = 0.0\nsamples = 1\nvalue = [0, 0, 0 ..., 0, 0, 0]\nclass = gi|146403799|gb|CP000494.1|-44"] ;
116 -> 117 ;
118 [label="adjusted score <= 0.2794\ngini = 0.9993\nsamples = 1354\nvalue = [1, 1, 1 ..., 0, 1, 1]\nclass = gi|30407128|emb|AL646053.1|-22"] ;
116 -> 118 ;
119 [label="gini = 0.0\nsamples = 1\nvalue = [0, 0, 0 ..., 0, 0, 0]\nclass = gi|951306652|gb|CP013141.1|-62"] ;
118 -> 119 ;
120 [label="adjusted score <= 0.28\ngini = 0.9993\nsamples = 1353\nvalue = [1, 1, 1 ..., 0, 1, 1]\nclass = gi|30407128|emb|AL646053.1|-22"] ;
118 -> 120 ;
121 [label="gini = 0.0\nsamples = 1\nvalue = [0, 0, 0 ..., 0, 0, 0]\nclass = gi|951301122|gb|CP013140.1|-21"] ;
120 -> 121 ;
122 [label="adjusted score <= 0.2812\ngini = 0.9993\nsamples = 1352\nvalue = [1, 1, 1 ..., 0, 1, 1]\nclass = gi|30407128|emb|AL646053.1|-22"] ;
120 -> 122 ;
123 [label="gini = 0.6667\nsamples = 3\nvalue = [0, 0, 0 ..., 0, 0, 0]\nclass = gi|959236254|emb|LN899827.1|-36"] ;
122 -> 123 ;
124 [label="adjusted score <= 0.2824\ngini = 0.9993\nsamples = 1349\nvalue = [1, 1, 1 ..., 0, 1, 1]\nclass = gi|30407128|emb|AL646053.1|-22"] ;
122 -> 124 ;
125 [label="gini = 0.0\nsamples = 1\nvalue = [0, 0, 0 ..., 0, 0, 0]\nclass = gi|730587126|gb|CP009747.1|-36"] ;
124 -> 125 ;
126 [label="adjusted score <= 0.283\ngini = 0.9993\nsamples = 1348\nvalue = [1, 1, 1 ..., 0, 1, 1]\nclass = gi|30407128|emb|AL646053.1|-22"] ;
124 -> 126 ;
127 [label="gini = 0.0\nsamples = 1\nvalue = [0, 0, 0 ..., 0, 0, 0]\nclass = gi|937314366|gb|CP012831.1|-72"] ;
126 -> 127 ;
128 [label="adjusted score <= 0.2835\ngini = 0.9993\nsamples = 1347\nvalue = [1, 1, 1 ..., 0, 1, 1]\nclass = gi|30407128|emb|AL646053.1|-22"] ;
126 -> 128 ;
129 [label="gini = 0.0\nsamples = 1\nvalue = [0, 0, 0 ..., 0, 0, 0]\nclass = gi|951306652|gb|CP013141.1|-65"] ;
128 -> 129 ;
130 [label="adjusted score <= 0.2839\ngini = 0.9993\nsamples = 1346\nvalue = [1, 1, 1 ..., 0, 1, 1]\nclass = gi|30407128|emb|AL646053.1|-22"] ;
128 -> 130 ;
131 [label="gini = 0.0\nsamples = 1\nvalue = [0, 0, 0 ..., 0, 0, 0]\nclass = gi|520999024|gb|CP003969.1|-95"] ;
130 -> 131 ;
132 [label="adjusted score <= 0.2844\ngini = 0.9993\nsamples = 1345\nvalue = [1, 1, 1 ..., 0, 1, 1]\nclass = gi|30407128|emb|AL646053.1|-22"] ;
130 -> 132 ;
133 [label="gini = 0.0\nsamples = 1\nvalue = [0, 0, 0 ..., 0, 0, 0]\nclass = gi|772904020|gb|CP009323.1|-56"] ;
132 -> 133 ;
134 [label="adjusted score <= 0.2848\ngini = 0.9993\nsamples = 1344\nvalue = [1, 1, 1 ..., 0, 1, 1]\nclass = gi|30407128|emb|AL646053.1|-22"] ;
132 -> 134 ;
135 [label="gini = 0.5\nsamples = 2\nvalue = [0, 0, 0 ..., 0, 0, 0]\nclass = gi|30407128|emb|AL646053.1|-35"] ;
134 -> 135 ;
136 [label="adjusted score <= 0.2853\ngini = 0.9993\nsamples = 1342\nvalue = [1, 1, 1 ..., 0, 1, 1]\nclass = gi|30407128|emb|AL646053.1|-22"] ;
134 -> 136 ;
137 [label="gini = 0.5\nsamples = 2\nvalue = [0, 0, 0 ..., 0, 0, 0]\nclass = gi|288912043|dbj|AP010947.1|-11"] ;
136 -> 137 ;
138 [label="adjusted score <= 0.2861\ngini = 0.9993\nsamples = 1340\nvalue = [1, 1, 1 ..., 0, 1, 1]\nclass = gi|30407128|emb|AL646053.1|-22"] ;
136 -> 138 ;
139 [label="gini = 0.5\nsamples = 2\nvalue = [0, 0, 0 ..., 0, 0, 0]\nclass = gi|772904020|gb|CP009323.1|-28"] ;
138 -> 139 ;
140 [label="adjusted score <= 0.288\ngini = 0.9993\nsamples = 1338\nvalue = [1, 1, 1 ..., 0, 1, 1]\nclass = gi|30407128|emb|AL646053.1|-22"] ;
138 -> 140 ;
141 [label="gini = 0.0\nsamples = 1\nvalue = [0, 0, 0 ..., 0, 0, 0]\nclass = gi|578005119|gb|CP007155.1|-38"] ;
140 -> 141 ;
142 [label="adjusted score <= 0.29\ngini = 0.9993\nsamples = 1337\nvalue = [1, 1, 1 ..., 0, 1, 1]\nclass = gi|30407128|emb|AL646053.1|-22"] ;
140 -> 142 ;
143 [label="gini = 0.0\nsamples = 1\nvalue = [0, 0, 0 ..., 0, 0, 0]\nclass = gi|826168461|gb|CP011371.1|-80"] ;
142 -> 143 ;
144 [label="adjusted score <= 0.291\ngini = 0.9993\nsamples = 1336\nvalue = [1, 1, 1 ..., 0, 1, 1]\nclass = gi|30407128|emb|AL646053.1|-22"] ;
142 -> 144 ;
145 [label="gini = 0.8571\nsamples = 7\nvalue = [0, 0, 0 ..., 0, 0, 0]\nclass = gi|959209244|emb|LN899821.1|-33"] ;
144 -> 145 ;
146 [label="adjusted score <= 0.2917\ngini = 0.9992\nsamples = 1329\nvalue = [1, 1, 1 ..., 0, 1, 1]\nclass = gi|30407128|emb|AL646053.1|-22"] ;
144 -> 146 ;
147 [label="gini = 0.0\nsamples = 1\nvalue = [0, 0, 0 ..., 0, 0, 0]\nclass = gi|45005|emb|X57310.1|-6"] ;
146 -> 147 ;
148 [label="adjusted score <= 0.2924\ngini = 0.9992\nsamples = 1328\nvalue = [1, 1, 1 ..., 0, 1, 1]\nclass = gi|30407128|emb|AL646053.1|-22"] ;
146 -> 148 ;
149 [label="gini = 0.0\nsamples = 1\nvalue = [0, 0, 0 ..., 0, 0, 0]\nclass = gi|578005119|gb|CP007155.1|-42"] ;
148 -> 149 ;
150 [label="adjusted score <= 0.293\ngini = 0.9992\nsamples = 1327\nvalue = [1, 1, 1 ..., 0, 1, 1]\nclass = gi|30407128|emb|AL646053.1|-22"] ;
148 -> 150 ;
151 [label="gini = 0.5\nsamples = 2\nvalue = [0, 0, 0 ..., 0, 0, 0]\nclass = gi|469775917|gb|CP004013.1|-13"] ;
150 -> 151 ;
152 [label="adjusted score <= 0.2932\ngini = 0.9992\nsamples = 1325\nvalue = [1, 1, 1 ..., 0, 1, 1]\nclass = gi|30407128|emb|AL646053.1|-22"] ;
150 -> 152 ;
153 [label="gini = 0.0\nsamples = 1\nvalue = [0, 0, 0 ..., 0, 0, 0]\nclass = gi|772904020|gb|CP009323.1|-57"] ;
152 -> 153 ;
154 [label="adjusted score <= 0.2934\ngini = 0.9992\nsamples = 1324\nvalue = [1, 1, 1 ..., 0, 1, 1]\nclass = gi|30407128|emb|AL646053.1|-22"] ;
152 -> 154 ;
155 [label="gini = 0.0\nsamples = 1\nvalue = [0, 0, 0 ..., 0, 0, 0]\nclass = gi|578005119|gb|CP007155.1|-49"] ;
154 -> 155 ;
156 [label="adjusted score <= 0.2941\ngini = 0.9992\nsamples = 1323\nvalue = [1, 1, 1 ..., 0, 1, 1]\nclass = gi|30407128|emb|AL646053.1|-22"] ;
154 -> 156 ;
157 [label="gini = 0.0\nsamples = 1\nvalue = [0, 0, 0 ..., 0, 0, 0]\nclass = gi|951715918|gb|CP011131.1|-32"] ;
156 -> 157 ;
158 [label="adjusted score <= 0.2949\ngini = 0.9992\nsamples = 1322\nvalue = [1, 1, 1 ..., 0, 1, 1]\nclass = gi|30407128|emb|AL646053.1|-22"] ;
156 -> 158 ;
159 [label="gini = 0.0\nsamples = 1\nvalue = [0, 0, 0 ..., 0, 0, 0]\nclass = gi|578005119|gb|CP007155.1|-63"] ;
158 -> 159 ;
160 [label="adjusted score <= 0.2953\ngini = 0.9992\nsamples = 1321\nvalue = [1, 1, 1 ..., 0, 1, 1]\nclass = gi|30407128|emb|AL646053.1|-22"] ;
158 -> 160 ;
161 [label="gini = 0.0\nsamples = 1\nvalue = [0, 0, 0 ..., 0, 0, 0]\nclass = gi|520999024|gb|CP003969.1|-79"] ;
160 -> 161 ;
162 [label="adjusted score <= 0.2957\ngini = 0.9992\nsamples = 1320\nvalue = [1, 1, 1 ..., 0, 1, 1]\nclass = gi|30407128|emb|AL646053.1|-22"] ;
160 -> 162 ;
163 [label="gini = 0.5\nsamples = 2\nvalue = [0, 0, 0 ..., 0, 0, 0]\nclass = gi|365804155|gb|CP003219.1|-24"] ;
162 -> 163 ;
164 [label="adjusted score <= 0.296\ngini = 0.9992\nsamples = 1318\nvalue = [1, 1, 1 ..., 0, 1, 1]\nclass = gi|30407128|emb|AL646053.1|-22"] ;
162 -> 164 ;
165 [label="gini = 0.0\nsamples = 1\nvalue = [0, 0, 0 ..., 0, 0, 0]\nclass = gi|951715918|gb|CP011131.1|-79"] ;
164 -> 165 ;
166 [label="adjusted score <= 0.2968\ngini = 0.9992\nsamples = 1317\nvalue = [1, 1, 1 ..., 0, 1, 1]\nclass = gi|30407128|emb|AL646053.1|-22"] ;
164 -> 166 ;
167 [label="gini = 0.0\nsamples = 1\nvalue = [0, 0, 0 ..., 0, 0, 0]\nclass = gi|169635761|emb|AM944592.1|-2"] ;
166 -> 167 ;
168 [label="adjusted score <= 0.2976\ngini = 0.9992\nsamples = 1316\nvalue = [1, 1, 1 ..., 0, 1, 1]\nclass = gi|30407128|emb|AL646053.1|-22"] ;
166 -> 168 ;
169 [label="gini = 0.5\nsamples = 2\nvalue = [0, 0, 0 ..., 0, 0, 0]\nclass = gi|365804155|gb|CP003219.1|-22"] ;
168 -> 169 ;
170 [label="adjusted score <= 0.2979\ngini = 0.9992\nsamples = 1314\nvalue = [1, 1, 1 ..., 0, 1, 1]\nclass = gi|30407128|emb|AL646053.1|-22"] ;
168 -> 170 ;
171 [label="gini = 0.0\nsamples = 1\nvalue = [0, 0, 0 ..., 0, 0, 0]\nclass = gi|749800189|gb|KP006601.1|-24"] ;
170 -> 171 ;
172 [label="adjusted score <= 0.2983\ngini = 0.9992\nsamples = 1313\nvalue = [1, 1, 1 ..., 0, 1, 1]\nclass = gi|30407128|emb|AL646053.1|-22"] ;
170 -> 172 ;
173 [label="gini = 0.0\nsamples = 1\nvalue = [0, 0, 0 ..., 0, 0, 0]\nclass = gi|959236254|emb|LN899827.1|-39"] ;
172 -> 173 ;
174 [label="adjusted score <= 0.2986\ngini = 0.9992\nsamples = 1312\nvalue = [1, 1, 1 ..., 0, 1, 1]\nclass = gi|30407128|emb|AL646053.1|-22"] ;
172 -> 174 ;
175 [label="gini = 0.75\nsamples = 4\nvalue = [0, 0, 0 ..., 0, 0, 0]\nclass = gi|1036556009|gb|CP015851.1|-28"] ;
174 -> 175 ;
176 [label="adjusted score <= 0.2989\ngini = 0.9992\nsamples = 1308\nvalue = [1, 1, 1 ..., 0, 1, 1]\nclass = gi|30407128|emb|AL646053.1|-22"] ;
174 -> 176 ;
177 [label="gini = 0.0\nsamples = 1\nvalue = [0, 0, 0 ..., 0, 0, 0]\nclass = gi|951301122|gb|CP013140.1|-98"] ;
176 -> 177 ;
178 [label="adjusted score <= 0.2992\ngini = 0.9992\nsamples = 1307\nvalue = [1, 1, 1 ..., 0, 1, 1]\nclass = gi|30407128|emb|AL646053.1|-22"] ;
176 -> 178 ;
179 [label="gini = 0.0\nsamples = 1\nvalue = [0, 0, 0 ..., 0, 0, 0]\nclass = gi|951715918|gb|CP011131.1|-37"] ;
178 -> 179 ;
180 [label="adjusted score <= 0.2997\ngini = 0.9992\nsamples = 1306\nvalue = [1, 1, 1 ..., 0, 1, 1]\nclass = gi|30407128|emb|AL646053.1|-22"] ;
178 -> 180 ;
181 [label="gini = 0.0\nsamples = 1\nvalue = [0, 0, 0 ..., 0, 0, 0]\nclass = gi|951301122|gb|CP013140.1|-91"] ;
180 -> 181 ;
182 [label="adjusted score <= 0.3002\ngini = 0.9992\nsamples = 1305\nvalue = [1, 1, 1 ..., 0, 1, 1]\nclass = gi|30407128|emb|AL646053.1|-22"] ;
180 -> 182 ;
183 [label="gini = 0.0\nsamples = 1\nvalue = [0, 0, 0 ..., 0, 0, 0]\nclass = gi|826168461|gb|CP011371.1|-36"] ;
182 -> 183 ;
184 [label="adjusted score <= 0.3011\ngini = 0.9992\nsamples = 1304\nvalue = [1, 1, 1 ..., 0, 1, 1]\nclass = gi|30407128|emb|AL646053.1|-22"] ;
182 -> 184 ;
185 [label="gini = 0.0\nsamples = 1\nvalue = [0, 0, 0 ..., 0, 0, 0]\nclass = gi|772904020|gb|CP009323.1|-64"] ;
184 -> 185 ;
186 [label="adjusted score <= 0.3024\ngini = 0.9992\nsamples = 1303\nvalue = [1, 1, 1 ..., 0, 1, 1]\nclass = gi|30407128|emb|AL646053.1|-22"] ;
184 -> 186 ;
187 [label="gini = 0.0\nsamples = 1\nvalue = [0, 0, 0 ..., 0, 0, 0]\nclass = gi|951306652|gb|CP013141.1|-58"] ;
186 -> 187 ;
188 [label="adjusted score <= 0.3035\ngini = 0.9992\nsamples = 1302\nvalue = [1, 1, 1 ..., 0, 1, 1]\nclass = gi|30407128|emb|AL646053.1|-22"] ;
186 -> 188 ;
189 [label="gini = 0.5\nsamples = 2\nvalue = [0, 0, 0 ..., 0, 0, 0]\nclass = gi|951301122|gb|CP013140.1|-43"] ;
188 -> 189 ;
190 [label="adjusted score <= 0.3045\ngini = 0.9992\nsamples = 1300\nvalue = [1, 1, 1 ..., 0, 1, 1]\nclass = gi|30407128|emb|AL646053.1|-22"] ;
188 -> 190 ;
191 [label="gini = 0.0\nsamples = 1\nvalue = [0, 0, 0 ..., 0, 0, 0]\nclass = gi|299073288|emb|FP885907.1|-18"] ;
190 -> 191 ;
192 [label="adjusted score <= 0.3054\ngini = 0.9992\nsamples = 1299\nvalue = [1, 1, 1 ..., 0, 1, 1]\nclass = gi|30407128|emb|AL646053.1|-22"] ;
190 -> 192 ;
193 [label="gini = 0.5\nsamples = 2\nvalue = [0, 0, 0 ..., 0, 0, 0]\nclass = gi|337764029|emb|FQ859185.1|-21"] ;
192 -> 193 ;
194 [label="adjusted score <= 0.3057\ngini = 0.9992\nsamples = 1297\nvalue = [1, 1, 1 ..., 0, 1, 1]\nclass = gi|30407128|emb|AL646053.1|-22"] ;
192 -> 194 ;
195 [label="gini = 0.0\nsamples = 1\nvalue = [0, 0, 0 ..., 0, 0, 0]\nclass = gi|826168461|gb|CP011371.1|-74"] ;
194 -> 195 ;
196 [label="adjusted score <= 0.3061\ngini = 0.9992\nsamples = 1296\nvalue = [1, 1, 1 ..., 0, 1, 1]\nclass = gi|30407128|emb|AL646053.1|-22"] ;
194 -> 196 ;
197 [label="gini = 0.0\nsamples = 1\nvalue = [0, 0, 0 ..., 0, 0, 0]\nclass = gi|520999024|gb|CP003969.1|-70"] ;
196 -> 197 ;
198 [label="adjusted score <= 0.307\ngini = 0.9992\nsamples = 1295\nvalue = [1, 1, 1 ..., 0, 1, 1]\nclass = gi|30407128|emb|AL646053.1|-22"] ;
196 -> 198 ;
199 [label="gini = 0.0\nsamples = 1\nvalue = [0, 0, 0 ..., 0, 0, 0]\nclass = gi|951301122|gb|CP013140.1|-64"] ;
198 -> 199 ;
200 [label="adjusted score <= 0.3079\ngini = 0.9992\nsamples = 1294\nvalue = [1, 1, 1 ..., 0, 1, 1]\nclass = gi|30407128|emb|AL646053.1|-22"] ;
198 -> 200 ;
201 [label="gini = 0.0\nsamples = 1\nvalue = [0, 0, 0 ..., 0, 0, 0]\nclass = gi|951301122|gb|CP013140.1|-92"] ;
200 -> 201 ;
202 [label="adjusted score <= 0.3087\ngini = 0.9992\nsamples = 1293\nvalue = [1, 1, 1 ..., 0, 1, 1]\nclass = gi|30407128|emb|AL646053.1|-22"] ;
200 -> 202 ;
203 [label="gini = 0.0\nsamples = 1\nvalue = [0, 0, 0 ..., 0, 0, 0]\nclass = gi|520999024|gb|CP003969.1|-58"] ;
202 -> 203 ;
204 [label="adjusted score <= 0.3095\ngini = 0.9992\nsamples = 1292\nvalue = [1, 1, 1 ..., 0, 1, 1]\nclass = gi|30407128|emb|AL646053.1|-22"] ;
202 -> 204 ;
205 [label="gini = 0.5\nsamples = 2\nvalue = [0, 0, 0 ..., 0, 0, 0]\nclass = gi|1046920989|gb|CP016559.1|-24"] ;
204 -> 205 ;
206 [label="adjusted score <= 0.3099\ngini = 0.9992\nsamples = 1290\nvalue = [1, 1, 1 ..., 0, 1, 1]\nclass = gi|30407128|emb|AL646053.1|-22"] ;
204 -> 206 ;
207 [label="gini = 0.0\nsamples = 1\nvalue = [0, 0, 0 ..., 0, 0, 0]\nclass = gi|730587126|gb|CP009747.1|-24"] ;
206 -> 207 ;
208 [label="adjusted score <= 0.31\ngini = 0.9992\nsamples = 1289\nvalue = [1, 1, 1 ..., 0, 1, 1]\nclass = gi|30407128|emb|AL646053.1|-22"] ;
206 -> 208 ;
209 [label="gini = 0.0\nsamples = 1\nvalue = [0, 0, 0 ..., 0, 0, 0]\nclass = gi|146403799|gb|CP000494.1|-29"] ;
208 -> 209 ;
210 [label="adjusted score <= 0.31\ngini = 0.9992\nsamples = 1288\nvalue = [1, 1, 1 ..., 0, 1, 1]\nclass = gi|30407128|emb|AL646053.1|-22"] ;
208 -> 210 ;
211 [label="gini = 0.0\nsamples = 1\nvalue = [0, 0, 0 ..., 0, 0, 0]\nclass = gi|826168461|gb|CP011371.1|-84"] ;
210 -> 211 ;
212 [label="adjusted score <= 0.3104\ngini = 0.9992\nsamples = 1287\nvalue = [1, 1, 1 ..., 0, 1, 1]\nclass = gi|30407128|emb|AL646053.1|-22"] ;
210 -> 212 ;
213 [label="gini = 0.0\nsamples = 1\nvalue = [0, 0, 0 ..., 0, 0, 0]\nclass = gi|520999024|gb|CP003969.1|-67"] ;
212 -> 213 ;
214 [label="adjusted score <= 0.3109\ngini = 0.9992\nsamples = 1286\nvalue = [1, 1, 1 ..., 0, 1, 1]\nclass = gi|30407128|emb|AL646053.1|-22"] ;
212 -> 214 ;
215 [label="gini = 0.0\nsamples = 1\nvalue = [0, 0, 0 ..., 0, 0, 0]\nclass = gi|520999024|gb|CP003969.1|-76"] ;
214 -> 215 ;
216 [label="adjusted score <= 0.3111\ngini = 0.9992\nsamples = 1285\nvalue = [1, 1, 1 ..., 0, 1, 1]\nclass = gi|30407128|emb|AL646053.1|-22"] ;
214 -> 216 ;
217 [label="gini = 0.0\nsamples = 1\nvalue = [0, 0, 0 ..., 0, 0, 0]\nclass = gi|951715918|gb|CP011131.1|-27"] ;
216 -> 217 ;
218 [label="adjusted score <= 0.3113\ngini = 0.9992\nsamples = 1284\nvalue = [1, 1, 1 ..., 0, 1, 1]\nclass = gi|30407128|emb|AL646053.1|-22"] ;
216 -> 218 ;
219 [label="gini = 0.0\nsamples = 1\nvalue = [0, 0, 0 ..., 0, 0, 0]\nclass = gi|951301122|gb|CP013140.1|-60"] ;
218 -> 219 ;
220 [label="adjusted score <= 0.3123\ngini = 0.9992\nsamples = 1283\nvalue = [1, 1, 1 ..., 0, 1, 1]\nclass = gi|30407128|emb|AL646053.1|-22"] ;
218 -> 220 ;
221 [label="gini = 0.0\nsamples = 1\nvalue = [0, 0, 0 ..., 0, 0, 0]\nclass = gi|520999024|gb|CP003969.1|-51"] ;
220 -> 221 ;
222 [label="adjusted score <= 0.3146\ngini = 0.9992\nsamples = 1282\nvalue = [1, 1, 1 ..., 0, 1, 1]\nclass = gi|30407128|emb|AL646053.1|-22"] ;
220 -> 222 ;
223 [label="gini = 0.5\nsamples = 2\nvalue = [0, 0, 0 ..., 0, 0, 0]\nclass = gi|1036556009|gb|CP015851.1|-38"] ;
222 -> 223 ;
224 [label="adjusted score <= 0.3163\ngini = 0.9992\nsamples = 1280\nvalue = [1, 1, 1 ..., 0, 1, 1]\nclass = gi|30407128|emb|AL646053.1|-22"] ;
222 -> 224 ;
225 [label="gini = 0.0\nsamples = 1\nvalue = [0, 0, 0 ..., 0, 0, 0]\nclass = gi|951715918|gb|CP011131.1|-30"] ;
224 -> 225 ;
226 [label="adjusted score <= 0.3166\ngini = 0.9992\nsamples = 1279\nvalue = [1, 1, 1 ..., 0, 1, 1]\nclass = gi|30407128|emb|AL646053.1|-22"] ;
224 -> 226 ;
227 [label="gini = 0.0\nsamples = 1\nvalue = [0, 0, 0 ..., 0, 0, 0]\nclass = gi|730587126|gb|CP009747.1|-30"] ;
226 -> 227 ;
228 [label="adjusted score <= 0.3167\ngini = 0.9992\nsamples = 1278\nvalue = [1, 1, 1 ..., 0, 1, 1]\nclass = gi|30407128|emb|AL646053.1|-22"] ;
226 -> 228 ;
229 [label="gini = 0.0\nsamples = 1\nvalue = [0, 0, 0 ..., 0, 0, 0]\nclass = gi|951306652|gb|CP013141.1|-19"] ;
228 -> 229 ;
230 [label="adjusted score <= 0.3167\ngini = 0.9992\nsamples = 1277\nvalue = [1, 1, 1 ..., 0, 1, 1]\nclass = gi|30407128|emb|AL646053.1|-22"] ;
228 -> 230 ;
231 [label="gini = 0.5\nsamples = 2\nvalue = [0, 0, 0 ..., 0, 0, 0]\nclass = gi|1046920989|gb|CP016559.1|-15"] ;
230 -> 231 ;
232 [label="adjusted score <= 0.3168\ngini = 0.9992\nsamples = 1275\nvalue = [1, 1, 1 ..., 0, 1, 1]\nclass = gi|30407128|emb|AL646053.1|-22"] ;
230 -> 232 ;
233 [label="gini = 0.0\nsamples = 1\nvalue = [0, 0, 0 ..., 0, 0, 0]\nclass = gi|288912043|dbj|AP010947.1|-7"] ;
232 -> 233 ;
234 [label="adjusted score <= 0.3172\ngini = 0.9992\nsamples = 1274\nvalue = [1, 1, 1 ..., 0, 1, 1]\nclass = gi|30407128|emb|AL646053.1|-22"] ;
232 -> 234 ;
235 [label="gini = 0.0\nsamples = 1\nvalue = [0, 0, 0 ..., 0, 0, 0]\nclass = gi|299068436|emb|FP885896.1|-26"] ;
234 -> 235 ;
236 [label="adjusted score <= 0.3177\ngini = 0.9992\nsamples = 1273\nvalue = [1, 1, 1 ..., 0, 1, 1]\nclass = gi|30407128|emb|AL646053.1|-22"] ;
234 -> 236 ;
237 [label="gini = 0.0\nsamples = 1\nvalue = [0, 0, 0 ..., 0, 0, 0]\nclass = gi|826168461|gb|CP011371.1|-68"] ;
236 -> 237 ;
238 [label="adjusted score <= 0.3185\ngini = 0.9992\nsamples = 1272\nvalue = [1, 1, 1 ..., 0, 1, 1]\nclass = gi|30407128|emb|AL646053.1|-22"] ;
236 -> 238 ;
239 [label="gini = 0.8333\nsamples = 6\nvalue = [0, 0, 0 ..., 0, 0, 0]\nclass = gi|959220006|emb|LN899824.1|-30"] ;
238 -> 239 ;
240 [label="adjusted score <= 0.3196\ngini = 0.9992\nsamples = 1266\nvalue = [1, 1, 1 ..., 0, 1, 1]\nclass = gi|30407128|emb|AL646053.1|-22"] ;
238 -> 240 ;
241 [label="gini = 0.0\nsamples = 1\nvalue = [0, 0, 0 ..., 0, 0, 0]\nclass = gi|30407128|emb|AL646053.1|-31"] ;
240 -> 241 ;
242 [label="adjusted score <= 0.3201\ngini = 0.9992\nsamples = 1265\nvalue = [1, 1, 1 ..., 0, 1, 1]\nclass = gi|30407128|emb|AL646053.1|-22"] ;
240 -> 242 ;
243 [label="gini = 0.0\nsamples = 1\nvalue = [0, 0, 0 ..., 0, 0, 0]\nclass = gi|1752727|dbj|D50308.1|-5"] ;
242 -> 243 ;
244 [label="adjusted score <= 0.3202\ngini = 0.9992\nsamples = 1264\nvalue = [1, 1, 1 ..., 0, 1, 1]\nclass = gi|30407128|emb|AL646053.1|-22"] ;
242 -> 244 ;
245 [label="gini = 0.0\nsamples = 1\nvalue = [0, 0, 0 ..., 0, 0, 0]\nclass = gi|826168461|gb|CP011371.1|-44"] ;
244 -> 245 ;
246 [label="adjusted score <= 0.3206\ngini = 0.9992\nsamples = 1263\nvalue = [1, 1, 1 ..., 0, 1, 1]\nclass = gi|30407128|emb|AL646053.1|-22"] ;
244 -> 246 ;
247 [label="gini = 0.0\nsamples = 1\nvalue = [0, 0, 0 ..., 0, 0, 0]\nclass = gi|578005119|gb|CP007155.1|-32"] ;
246 -> 247 ;
248 [label="adjusted score <= 0.3209\ngini = 0.9992\nsamples = 1262\nvalue = [1, 1, 1 ..., 0, 1, 1]\nclass = gi|30407128|emb|AL646053.1|-22"] ;
246 -> 248 ;
249 [label="gini = 0.0\nsamples = 1\nvalue = [0, 0, 0 ..., 0, 0, 0]\nclass = gi|1046920989|gb|CP016559.1|-10"] ;
248 -> 249 ;
250 [label="adjusted score <= 0.321\ngini = 0.9992\nsamples = 1261\nvalue = [1, 1, 1 ..., 0, 1, 1]\nclass = gi|30407128|emb|AL646053.1|-22"] ;
248 -> 250 ;
251 [label="gini = 0.0\nsamples = 1\nvalue = [0, 0, 0 ..., 0, 0, 0]\nclass = gi|951715918|gb|CP011131.1|-76"] ;
250 -> 251 ;
252 [label="adjusted score <= 0.3212\ngini = 0.9992\nsamples = 1260\nvalue = [1, 1, 1 ..., 0, 1, 1]\nclass = gi|30407128|emb|AL646053.1|-22"] ;
250 -> 252 ;
253 [label="gini = 0.0\nsamples = 1\nvalue = [0, 0, 0 ..., 0, 0, 0]\nclass = gi|959209244|emb|LN899821.1|-3"] ;
252 -> 253 ;
254 [label="adjusted score <= 0.3218\ngini = 0.9992\nsamples = 1259\nvalue = [1, 1, 1 ..., 0, 1, 1]\nclass = gi|30407128|emb|AL646053.1|-22"] ;
252 -> 254 ;
255 [label="gini = 0.0\nsamples = 1\nvalue = [0, 0, 0 ..., 0, 0, 0]\nclass = gi|937314366|gb|CP012831.1|-41"] ;
254 -> 255 ;
256 [label="adjusted score <= 0.3227\ngini = 0.9992\nsamples = 1258\nvalue = [1, 1, 1 ..., 0, 1, 1]\nclass = gi|30407128|emb|AL646053.1|-22"] ;
254 -> 256 ;
257 [label="gini = 0.5\nsamples = 2\nvalue = [0, 0, 0 ..., 0, 0, 0]\nclass = gi|951306652|gb|CP013141.1|-63"] ;
256 -> 257 ;
258 [label="adjusted score <= 0.3231\ngini = 0.9992\nsamples = 1256\nvalue = [1, 1, 1 ..., 0, 1, 1]\nclass = gi|30407128|emb|AL646053.1|-22"] ;
256 -> 258 ;
259 [label="gini = 0.5\nsamples = 2\nvalue = [0, 0, 0 ..., 0, 0, 0]\nclass = gi|365804155|gb|CP003219.1|-19"] ;
258 -> 259 ;
260 [label="adjusted score <= 0.324\ngini = 0.9992\nsamples = 1254\nvalue = [1, 1, 1 ..., 0, 1, 1]\nclass = gi|30407128|emb|AL646053.1|-22"] ;
258 -> 260 ;
261 [label="gini = 0.0\nsamples = 1\nvalue = [0, 0, 0 ..., 0, 0, 0]\nclass = gi|1752727|dbj|D50308.1|-4"] ;
260 -> 261 ;
262 [label="adjusted score <= 0.3262\ngini = 0.9992\nsamples = 1253\nvalue = [1, 1, 1 ..., 0, 1, 1]\nclass = gi|30407128|emb|AL646053.1|-22"] ;
260 -> 262 ;
263 [label="gini = 0.0\nsamples = 1\nvalue = [0, 0, 0 ..., 0, 0, 0]\nclass = gi|937314366|gb|CP012831.1|-58"] ;
262 -> 263 ;
264 [label="adjusted score <= 0.3279\ngini = 0.9992\nsamples = 1252\nvalue = [1, 1, 1 ..., 0, 1, 1]\nclass = gi|30407128|emb|AL646053.1|-22"] ;
262 -> 264 ;
265 [label="gini = 0.0\nsamples = 1\nvalue = [0, 0, 0 ..., 0, 0, 0]\nclass = gi|951301122|gb|CP013140.1|-10"] ;
264 -> 265 ;
266 [label="adjusted score <= 0.3287\ngini = 0.9992\nsamples = 1251\nvalue = [1, 1, 1 ..., 0, 1, 1]\nclass = gi|30407128|emb|AL646053.1|-22"] ;
264 -> 266 ;
267 [label="gini = 0.5\nsamples = 2\nvalue = [0, 0, 0 ..., 0, 0, 0]\nclass = gi|1036556009|gb|CP015851.1|-2"] ;
266 -> 267 ;
268 [label="adjusted score <= 0.3294\ngini = 0.9992\nsamples = 1249\nvalue = [1, 1, 1 ..., 0, 1, 1]\nclass = gi|30407128|emb|AL646053.1|-22"] ;
266 -> 268 ;
269 [label="gini = 0.0\nsamples = 1\nvalue = [0, 0, 0 ..., 0, 0, 0]\nclass = gi|578005119|gb|CP007155.1|-31"] ;
268 -> 269 ;
270 [label="adjusted score <= 0.33\ngini = 0.9992\nsamples = 1248\nvalue = [1, 1, 1 ..., 0, 1, 1]\nclass = gi|30407128|emb|AL646053.1|-22"] ;
268 -> 270 ;
271 [label="gini = 0.0\nsamples = 1\nvalue = [0, 0, 0 ..., 0, 0, 0]\nclass = gi|730587126|gb|CP009747.1|-21"] ;
270 -> 271 ;
272 [label="adjusted score <= 0.3306\ngini = 0.9992\nsamples = 1247\nvalue = [1, 1, 1 ..., 0, 1, 1]\nclass = gi|30407128|emb|AL646053.1|-22"] ;
270 -> 272 ;
273 [label="gini = 0.5\nsamples = 2\nvalue = [0, 0, 0 ..., 0, 0, 0]\nclass = gi|951715918|gb|CP011131.1|-61"] ;
272 -> 273 ;
274 [label="adjusted score <= 0.3318\ngini = 0.9992\nsamples = 1245\nvalue = [1, 1, 1 ..., 0, 1, 1]\nclass = gi|30407128|emb|AL646053.1|-22"] ;
272 -> 274 ;
275 [label="gini = 0.0\nsamples = 1\nvalue = [0, 0, 0 ..., 0, 0, 0]\nclass = gi|749800189|gb|KP006601.1|-23"] ;
274 -> 275 ;
276 [label="adjusted score <= 0.3329\ngini = 0.9992\nsamples = 1244\nvalue = [1, 1, 1 ..., 0, 1, 1]\nclass = gi|30407128|emb|AL646053.1|-22"] ;
274 -> 276 ;
277 [label="gini = 0.0\nsamples = 1\nvalue = [0, 0, 0 ..., 0, 0, 0]\nclass = gi|951301122|gb|CP013140.1|-51"] ;
276 -> 277 ;
278 [label="adjusted score <= 0.3339\ngini = 0.9992\nsamples = 1243\nvalue = [1, 1, 1 ..., 0, 1, 1]\nclass = gi|30407128|emb|AL646053.1|-22"] ;
276 -> 278 ;
279 [label="gini = 0.0\nsamples = 1\nvalue = [0, 0, 0 ..., 0, 0, 0]\nclass = gi|520999024|gb|CP003969.1|-64"] ;
278 -> 279 ;
280 [label="adjusted score <= 0.335\ngini = 0.9992\nsamples = 1242\nvalue = [1, 1, 1 ..., 0, 1, 1]\nclass = gi|30407128|emb|AL646053.1|-22"] ;
278 -> 280 ;
281 [label="gini = 0.0\nsamples = 1\nvalue = [0, 0, 0 ..., 0, 0, 0]\nclass = gi|951301122|gb|CP013140.1|-68"] ;
280 -> 281 ;
282 [label="adjusted score <= 0.3356\ngini = 0.9992\nsamples = 1241\nvalue = [1, 1, 1 ..., 0, 1, 1]\nclass = gi|30407128|emb|AL646053.1|-22"] ;
280 -> 282 ;
283 [label="gini = 0.0\nsamples = 1\nvalue = [0, 0, 0 ..., 0, 0, 0]\nclass = gi|937314366|gb|CP012831.1|-34"] ;
282 -> 283 ;
284 [label="adjusted score <= 0.3357\ngini = 0.9992\nsamples = 1240\nvalue = [1, 1, 1 ..., 0, 1, 1]\nclass = gi|30407128|emb|AL646053.1|-22"] ;
282 -> 284 ;
285 [label="gini = 0.5\nsamples = 2\nvalue = [0, 0, 0 ..., 0, 0, 0]\nclass = gi|342298470|emb|FR831800.1|-6"] ;
284 -> 285 ;
286 [label="adjusted score <= 0.3362\ngini = 0.9992\nsamples = 1238\nvalue = [1, 1, 1 ..., 0, 1, 1]\nclass = gi|30407128|emb|AL646053.1|-22"] ;
284 -> 286 ;
287 [label="gini = 0.0\nsamples = 1\nvalue = [0, 0, 0 ..., 0, 0, 0]\nclass = gi|578005119|gb|CP007155.1|-43"] ;
286 -> 287 ;
288 [label="adjusted score <= 0.3369\ngini = 0.9992\nsamples = 1237\nvalue = [1, 1, 1 ..., 0, 1, 1]\nclass = gi|30407128|emb|AL646053.1|-22"] ;
286 -> 288 ;
289 [label="gini = 0.6667\nsamples = 3\nvalue = [0, 0, 0 ..., 0, 0, 0]\nclass = gi|520999024|gb|CP003969.1|-66"] ;
288 -> 289 ;
290 [label="adjusted score <= 0.3373\ngini = 0.9992\nsamples = 1234\nvalue = [1, 1, 1 ..., 0, 1, 1]\nclass = gi|30407128|emb|AL646053.1|-22"] ;
288 -> 290 ;
291 [label="gini = 0.0\nsamples = 1\nvalue = [0, 0, 0 ..., 0, 0, 0]\nclass = gi|937314366|gb|CP012831.1|-74"] ;
290 -> 291 ;
292 [label="adjusted score <= 0.3375\ngini = 0.9992\nsamples = 1233\nvalue = [1, 1, 1 ..., 0, 1, 1]\nclass = gi|30407128|emb|AL646053.1|-22"] ;
290 -> 292 ;
293 [label="gini = 0.5\nsamples = 2\nvalue = [0, 0, 0 ..., 0, 0, 0]\nclass = gi|347668095|gb|JN596952.1|-37"] ;
292 -> 293 ;
294 [label="adjusted score <= 0.3381\ngini = 0.9992\nsamples = 1231\nvalue = [1, 1, 1 ..., 0, 1, 1]\nclass = gi|30407128|emb|AL646053.1|-22"] ;
292 -> 294 ;
295 [label="gini = 0.75\nsamples = 4\nvalue = [0, 0, 0 ..., 0, 0, 0]\nclass = gi|67524326|ref|XM_655133.1|-1"] ;
294 -> 295 ;
296 [label="adjusted score <= 0.3386\ngini = 0.9992\nsamples = 1227\nvalue = [1, 1, 1 ..., 0, 1, 1]\nclass = gi|30407128|emb|AL646053.1|-22"] ;
294 -> 296 ;
297 [label="gini = 0.0\nsamples = 1\nvalue = [0, 0, 0 ..., 0, 0, 0]\nclass = gi|951715918|gb|CP011131.1|-54"] ;
296 -> 297 ;
298 [label="adjusted score <= 0.339\ngini = 0.9992\nsamples = 1226\nvalue = [1, 1, 1 ..., 0, 1, 1]\nclass = gi|30407128|emb|AL646053.1|-22"] ;
296 -> 298 ;
299 [label="gini = 0.0\nsamples = 1\nvalue = [0, 0, 0 ..., 0, 0, 0]\nclass = gi|520999024|gb|CP003969.1|-36"] ;
298 -> 299 ;
300 [label="adjusted score <= 0.3396\ngini = 0.9992\nsamples = 1225\nvalue = [1, 1, 1 ..., 0, 1, 1]\nclass = gi|30407128|emb|AL646053.1|-22"] ;
298 -> 300 ;
301 [label="gini = 0.5\nsamples = 2\nvalue = [0, 0, 0 ..., 0, 0, 0]\nclass = gi|937314366|gb|CP012831.1|-48"] ;
300 -> 301 ;
302 [label="adjusted score <= 0.3405\ngini = 0.9992\nsamples = 1223\nvalue = [1, 1, 1 ..., 0, 1, 1]\nclass = gi|30407128|emb|AL646053.1|-22"] ;
300 -> 302 ;
303 [label="gini = 0.75\nsamples = 4\nvalue = [0, 0, 0 ..., 0, 0, 0]\nclass = gi|951301122|gb|CP013140.1|-100"] ;
302 -> 303 ;
304 [label="adjusted score <= 0.3412\ngini = 0.9992\nsamples = 1219\nvalue = [1, 1, 1 ..., 0, 1, 1]\nclass = gi|30407128|emb|AL646053.1|-22"] ;
302 -> 304 ;
305 [label="gini = 0.0\nsamples = 1\nvalue = [0, 0, 0 ..., 0, 0, 0]\nclass = gi|578005119|gb|CP007155.1|-50"] ;
304 -> 305 ;
306 [label="adjusted score <= 0.3414\ngini = 0.9992\nsamples = 1218\nvalue = [1, 1, 1 ..., 0, 1, 1]\nclass = gi|30407128|emb|AL646053.1|-22"] ;
304 -> 306 ;
307 [label="gini = 0.0\nsamples = 1\nvalue = [0, 0, 0 ..., 0, 0, 0]\nclass = gi|951715918|gb|CP011131.1|-25"] ;
306 -> 307 ;
308 [label="adjusted score <= 0.3418\ngini = 0.9992\nsamples = 1217\nvalue = [1, 1, 1 ..., 0, 1, 1]\nclass = gi|30407128|emb|AL646053.1|-22"] ;
306 -> 308 ;
309 [label="gini = 0.0\nsamples = 1\nvalue = [0, 0, 0 ..., 0, 0, 0]\nclass = gi|578005119|gb|CP007155.1|-29"] ;
308 -> 309 ;
310 [label="adjusted score <= 0.3423\ngini = 0.9992\nsamples = 1216\nvalue = [1, 1, 1 ..., 0, 1, 1]\nclass = gi|30407128|emb|AL646053.1|-22"] ;
308 -> 310 ;
311 [label="gini = 0.0\nsamples = 1\nvalue = [0, 0, 0 ..., 0, 0, 0]\nclass = gi|951301122|gb|CP013140.1|-75"] ;
310 -> 311 ;
312 [label="adjusted score <= 0.3426\ngini = 0.9992\nsamples = 1215\nvalue = [1, 1, 1 ..., 0, 1, 1]\nclass = gi|30407128|emb|AL646053.1|-22"] ;
310 -> 312 ;
313 [label="gini = 0.0\nsamples = 1\nvalue = [0, 0, 0 ..., 0, 0, 0]\nclass = gi|1046920989|gb|CP016559.1|-1"] ;
312 -> 313 ;
314 [label="adjusted score <= 0.3428\ngini = 0.9992\nsamples = 1214\nvalue = [1, 1, 1 ..., 0, 1, 1]\nclass = gi|30407128|emb|AL646053.1|-22"] ;
312 -> 314 ;
315 [label="gini = 0.0\nsamples = 1\nvalue = [0, 0, 0 ..., 0, 0, 0]\nclass = gi|772904020|gb|CP009323.1|-25"] ;
314 -> 315 ;
316 [label="adjusted score <= 0.3432\ngini = 0.9992\nsamples = 1213\nvalue = [1, 1, 1 ..., 0, 1, 1]\nclass = gi|30407128|emb|AL646053.1|-22"] ;
314 -> 316 ;
317 [label="gini = 0.0\nsamples = 1\nvalue = [0, 0, 0 ..., 0, 0, 0]\nclass = gi|772904020|gb|CP009323.1|-55"] ;
316 -> 317 ;
318 [label="adjusted score <= 0.3438\ngini = 0.9992\nsamples = 1212\nvalue = [1, 1, 1 ..., 0, 1, 1]\nclass = gi|30407128|emb|AL646053.1|-22"] ;
316 -> 318 ;
319 [label="gini = 0.5\nsamples = 2\nvalue = [0, 0, 0 ..., 0, 0, 0]\nclass = gi|826168461|gb|CP011371.1|-45"] ;
318 -> 319 ;
320 [label="adjusted score <= 0.3441\ngini = 0.9992\nsamples = 1210\nvalue = [1, 1, 1 ..., 0, 1, 1]\nclass = gi|30407128|emb|AL646053.1|-22"] ;
318 -> 320 ;
321 [label="gini = 0.0\nsamples = 1\nvalue = [0, 0, 0 ..., 0, 0, 0]\nclass = gi|299068436|emb|FP885896.1|-33"] ;
320 -> 321 ;
322 [label="adjusted score <= 0.3443\ngini = 0.9992\nsamples = 1209\nvalue = [1, 1, 1 ..., 0, 1, 1]\nclass = gi|30407128|emb|AL646053.1|-22"] ;
320 -> 322 ;
323 [label="gini = 0.0\nsamples = 1\nvalue = [0, 0, 0 ..., 0, 0, 0]\nclass = gi|937314366|gb|CP012831.1|-84"] ;
322 -> 323 ;
324 [label="adjusted score <= 0.3445\ngini = 0.9992\nsamples = 1208\nvalue = [1, 1, 1 ..., 0, 1, 1]\nclass = gi|30407128|emb|AL646053.1|-22"] ;
322 -> 324 ;
325 [label="gini = 0.0\nsamples = 1\nvalue = [0, 0, 0 ..., 0, 0, 0]\nclass = gi|937314366|gb|CP012831.1|-32"] ;
324 -> 325 ;
326 [label="adjusted score <= 0.3446\ngini = 0.9992\nsamples = 1207\nvalue = [1, 1, 1 ..., 0, 1, 1]\nclass = gi|30407128|emb|AL646053.1|-22"] ;
324 -> 326 ;
327 [label="gini = 0.0\nsamples = 1\nvalue = [0, 0, 0 ..., 0, 0, 0]\nclass = gi|520999024|gb|CP003969.1|-75"] ;
326 -> 327 ;
328 [label="adjusted score <= 0.345\ngini = 0.9992\nsamples = 1206\nvalue = [1, 1, 1 ..., 0, 1, 1]\nclass = gi|30407128|emb|AL646053.1|-22"] ;
326 -> 328 ;
329 [label="gini = 0.0\nsamples = 1\nvalue = [0, 0, 0 ..., 0, 0, 0]\nclass = gi|951715918|gb|CP011131.1|-58"] ;
328 -> 329 ;
330 [label="adjusted score <= 0.3455\ngini = 0.9992\nsamples = 1205\nvalue = [1, 1, 1 ..., 0, 1, 1]\nclass = gi|30407128|emb|AL646053.1|-22"] ;
328 -> 330 ;
331 [label="gini = 0.5\nsamples = 2\nvalue = [0, 0, 0 ..., 0, 0, 0]\nclass = gi|1036556009|gb|CP015851.1|-41"] ;
330 -> 331 ;
332 [label="adjusted score <= 0.3459\ngini = 0.9992\nsamples = 1203\nvalue = [1, 1, 1 ..., 0, 1, 1]\nclass = gi|30407128|emb|AL646053.1|-22"] ;
330 -> 332 ;
333 [label="gini = 0.5\nsamples = 2\nvalue = [0, 0, 0 ..., 0, 0, 0]\nclass = gi|578005119|gb|CP007155.1|-40"] ;
332 -> 333 ;
334 [label="adjusted score <= 0.3463\ngini = 0.9992\nsamples = 1201\nvalue = [1, 1, 1 ..., 0, 1, 1]\nclass = gi|30407128|emb|AL646053.1|-22"] ;
332 -> 334 ;
335 [label="gini = 0.0\nsamples = 1\nvalue = [0, 0, 0 ..., 0, 0, 0]\nclass = gi|951715918|gb|CP011131.1|-73"] ;
334 -> 335 ;
336 [label="adjusted score <= 0.3466\ngini = 0.9992\nsamples = 1200\nvalue = [1, 1, 1 ..., 0, 1, 1]\nclass = gi|30407128|emb|AL646053.1|-22"] ;
334 -> 336 ;
337 [label="gini = 0.0\nsamples = 1\nvalue = [0, 0, 0 ..., 0, 0, 0]\nclass = gi|520999024|gb|CP003969.1|-50"] ;
336 -> 337 ;
338 [label="adjusted score <= 0.3469\ngini = 0.9992\nsamples = 1199\nvalue = [1, 1, 1 ..., 0, 1, 1]\nclass = gi|30407128|emb|AL646053.1|-22"] ;
336 -> 338 ;
339 [label="gini = 0.6667\nsamples = 3\nvalue = [0, 0, 0 ..., 0, 0, 0]\nclass = gi|146403799|gb|CP000494.1|-43"] ;
338 -> 339 ;
340 [label="adjusted score <= 0.3473\ngini = 0.9992\nsamples = 1196\nvalue = [1, 1, 1 ..., 0, 1, 1]\nclass = gi|30407128|emb|AL646053.1|-22"] ;
338 -> 340 ;
341 [label="gini = 0.0\nsamples = 1\nvalue = [0, 0, 0 ..., 0, 0, 0]\nclass = gi|749800189|gb|KP006601.1|-14"] ;
340 -> 341 ;
342 [label="adjusted score <= 0.3478\ngini = 0.9992\nsamples = 1195\nvalue = [1, 1, 1 ..., 0, 1, 1]\nclass = gi|30407128|emb|AL646053.1|-22"] ;
340 -> 342 ;
343 [label="gini = 0.0\nsamples = 1\nvalue = [0, 0, 0 ..., 0, 0, 0]\nclass = gi|772904020|gb|CP009323.1|-45"] ;
342 -> 343 ;
344 [label="adjusted score <= 0.3481\ngini = 0.9992\nsamples = 1194\nvalue = [1, 1, 1 ..., 0, 1, 1]\nclass = gi|30407128|emb|AL646053.1|-22"] ;
342 -> 344 ;
345 [label="gini = 0.0\nsamples = 1\nvalue = [0, 0, 0 ..., 0, 0, 0]\nclass = gi|342298470|emb|FR831800.1|-5"] ;
344 -> 345 ;
346 [label="adjusted score <= 0.3482\ngini = 0.9992\nsamples = 1193\nvalue = [1, 1, 1 ..., 0, 1, 1]\nclass = gi|30407128|emb|AL646053.1|-22"] ;
344 -> 346 ;
347 [label="gini = 0.0\nsamples = 1\nvalue = [0, 0, 0 ..., 0, 0, 0]\nclass = gi|772904020|gb|CP009323.1|-51"] ;
346 -> 347 ;
348 [label="adjusted score <= 0.3484\ngini = 0.9992\nsamples = 1192\nvalue = [1, 1, 1 ..., 0, 1, 1]\nclass = gi|30407128|emb|AL646053.1|-22"] ;
346 -> 348 ;
349 [label="gini = 0.0\nsamples = 1\nvalue = [0, 0, 0 ..., 0, 0, 0]\nclass = gi|772904020|gb|CP009323.1|-22"] ;
348 -> 349 ;
350 [label="adjusted score <= 0.3492\ngini = 0.9992\nsamples = 1191\nvalue = [1, 1, 1 ..., 0, 1, 1]\nclass = gi|30407128|emb|AL646053.1|-22"] ;
348 -> 350 ;
351 [label="gini = 0.0\nsamples = 1\nvalue = [0, 0, 0 ..., 0, 0, 0]\nclass = gi|1046920989|gb|CP016559.1|-4"] ;
350 -> 351 ;
352 [label="adjusted score <= 0.3505\ngini = 0.9992\nsamples = 1190\nvalue = [1, 1, 1 ..., 0, 1, 1]\nclass = gi|30407128|emb|AL646053.1|-22"] ;
350 -> 352 ;
353 [label="gini = 0.5\nsamples = 2\nvalue = [0, 0, 0 ..., 0, 0, 0]\nclass = gi|826168461|gb|CP011371.1|-31"] ;
352 -> 353 ;
354 [label="adjusted score <= 0.351\ngini = 0.9992\nsamples = 1188\nvalue = [1, 1, 1 ..., 0, 1, 1]\nclass = gi|30407128|emb|AL646053.1|-22"] ;
352 -> 354 ;
355 [label="gini = 0.0\nsamples = 1\nvalue = [0, 0, 0 ..., 0, 0, 0]\nclass = gi|937314366|gb|CP012831.1|-13"] ;
354 -> 355 ;
356 [label="adjusted score <= 0.3516\ngini = 0.9992\nsamples = 1187\nvalue = [1, 1, 1 ..., 0, 1, 1]\nclass = gi|30407128|emb|AL646053.1|-22"] ;
354 -> 356 ;
357 [label="gini = 0.5\nsamples = 2\nvalue = [0, 0, 0 ..., 0, 0, 0]\nclass = gi|749800189|gb|KP006601.1|-21"] ;
356 -> 357 ;
358 [label="adjusted score <= 0.3523\ngini = 0.9992\nsamples = 1185\nvalue = [1, 1, 1 ..., 0, 1, 1]\nclass = gi|30407128|emb|AL646053.1|-22"] ;
356 -> 358 ;
359 [label="gini = 0.0\nsamples = 1\nvalue = [0, 0, 0 ..., 0, 0, 0]\nclass = gi|951715918|gb|CP011131.1|-64"] ;
358 -> 359 ;
360 [label="adjusted score <= 0.3525\ngini = 0.9992\nsamples = 1184\nvalue = [1, 1, 1 ..., 0, 1, 1]\nclass = gi|30407128|emb|AL646053.1|-22"] ;
358 -> 360 ;
361 [label="gini = 0.0\nsamples = 1\nvalue = [0, 0, 0 ..., 0, 0, 0]\nclass = gi|937314366|gb|CP012831.1|-76"] ;
360 -> 361 ;
362 [label="adjusted score <= 0.3527\ngini = 0.9992\nsamples = 1183\nvalue = [1, 1, 1 ..., 0, 1, 1]\nclass = gi|30407128|emb|AL646053.1|-22"] ;
360 -> 362 ;
363 [label="gini = 0.0\nsamples = 1\nvalue = [0, 0, 0 ..., 0, 0, 0]\nclass = gi|826168461|gb|CP011371.1|-53"] ;
362 -> 363 ;
364 [label="adjusted score <= 0.3531\ngini = 0.9992\nsamples = 1182\nvalue = [1, 1, 1 ..., 0, 1, 1]\nclass = gi|30407128|emb|AL646053.1|-22"] ;
362 -> 364 ;
365 [label="gini = 0.0\nsamples = 1\nvalue = [0, 0, 0 ..., 0, 0, 0]\nclass = gi|826168461|gb|CP011371.1|-54"] ;
364 -> 365 ;
366 [label="adjusted score <= 0.3535\ngini = 0.9992\nsamples = 1181\nvalue = [1, 1, 1 ..., 0, 1, 1]\nclass = gi|30407128|emb|AL646053.1|-22"] ;
364 -> 366 ;
367 [label="gini = 0.0\nsamples = 1\nvalue = [0, 0, 0 ..., 0, 0, 0]\nclass = gi|520999024|gb|CP003969.1|-62"] ;
366 -> 367 ;
368 [label="adjusted score <= 0.3538\ngini = 0.9992\nsamples = 1180\nvalue = [1, 1, 1 ..., 0, 1, 1]\nclass = gi|30407128|emb|AL646053.1|-22"] ;
366 -> 368 ;
369 [label="gini = 0.0\nsamples = 1\nvalue = [0, 0, 0 ..., 0, 0, 0]\nclass = gi|520999024|gb|CP003969.1|-57"] ;
368 -> 369 ;
370 [label="adjusted score <= 0.3541\ngini = 0.9992\nsamples = 1179\nvalue = [1, 1, 1 ..., 0, 1, 1]\nclass = gi|30407128|emb|AL646053.1|-22"] ;
368 -> 370 ;
371 [label="gini = 0.0\nsamples = 1\nvalue = [0, 0, 0 ..., 0, 0, 0]\nclass = gi|1036556009|gb|CP015851.1|-19"] ;
370 -> 371 ;
372 [label="adjusted score <= 0.3542\ngini = 0.9992\nsamples = 1178\nvalue = [1, 1, 1 ..., 0, 1, 1]\nclass = gi|30407128|emb|AL646053.1|-22"] ;
370 -> 372 ;
373 [label="gini = 0.0\nsamples = 1\nvalue = [0, 0, 0 ..., 0, 0, 0]\nclass = gi|772904020|gb|CP009323.1|-13"] ;
372 -> 373 ;
374 [label="adjusted score <= 0.3543\ngini = 0.9992\nsamples = 1177\nvalue = [1, 1, 1 ..., 0, 1, 1]\nclass = gi|30407128|emb|AL646053.1|-22"] ;
372 -> 374 ;
375 [label="gini = 0.0\nsamples = 1\nvalue = [0, 0, 0 ..., 0, 0, 0]\nclass = gi|951715918|gb|CP011131.1|-22"] ;
374 -> 375 ;
376 [label="adjusted score <= 0.3547\ngini = 0.9991\nsamples = 1176\nvalue = [1, 1, 1 ..., 0, 1, 1]\nclass = gi|30407128|emb|AL646053.1|-22"] ;
374 -> 376 ;
377 [label="gini = 0.0\nsamples = 1\nvalue = [0, 0, 0 ..., 0, 0, 0]\nclass = gi|45005|emb|X57310.1|-4"] ;
376 -> 377 ;
378 [label="adjusted score <= 0.3556\ngini = 0.9991\nsamples = 1175\nvalue = [1, 1, 1 ..., 0, 1, 1]\nclass = gi|30407128|emb|AL646053.1|-22"] ;
376 -> 378 ;
379 [label="gini = 0.0\nsamples = 1\nvalue = [0, 0, 0 ..., 0, 0, 0]\nclass = gi|749800189|gb|KP006601.1|-22"] ;
378 -> 379 ;
380 [label="adjusted score <= 0.3564\ngini = 0.9991\nsamples = 1174\nvalue = [1, 1, 1 ..., 0, 1, 1]\nclass = gi|30407128|emb|AL646053.1|-22"] ;
378 -> 380 ;
381 [label="gini = 0.0\nsamples = 1\nvalue = [0, 0, 0 ..., 0, 0, 0]\nclass = gi|951301122|gb|CP013140.1|-74"] ;
380 -> 381 ;
382 [label="adjusted score <= 0.3568\ngini = 0.9991\nsamples = 1173\nvalue = [1, 1, 1 ..., 0, 1, 1]\nclass = gi|30407128|emb|AL646053.1|-22"] ;
380 -> 382 ;
383 [label="gini = 0.0\nsamples = 1\nvalue = [0, 0, 0 ..., 0, 0, 0]\nclass = gi|469775917|gb|CP004013.1|-12"] ;
382 -> 383 ;
384 [label="adjusted score <= 0.357\ngini = 0.9991\nsamples = 1172\nvalue = [1, 1, 1 ..., 0, 1, 1]\nclass = gi|30407128|emb|AL646053.1|-22"] ;
382 -> 384 ;
385 [label="gini = 0.0\nsamples = 1\nvalue = [0, 0, 0 ..., 0, 0, 0]\nclass = gi|1046920989|gb|CP016559.1|-16"] ;
384 -> 385 ;
386 [label="adjusted score <= 0.3573\ngini = 0.9991\nsamples = 1171\nvalue = [1, 1, 1 ..., 0, 1, 1]\nclass = gi|30407128|emb|AL646053.1|-22"] ;
384 -> 386 ;
387 [label="gini = 0.5\nsamples = 2\nvalue = [0, 0, 0 ..., 0, 0, 0]\nclass = gi|299068436|emb|FP885896.1|-30"] ;
386 -> 387 ;
388 [label="adjusted score <= 0.3576\ngini = 0.9991\nsamples = 1169\nvalue = [1, 1, 1 ..., 0, 1, 1]\nclass = gi|30407128|emb|AL646053.1|-22"] ;
386 -> 388 ;
389 [label="gini = 0.0\nsamples = 1\nvalue = [0, 0, 0 ..., 0, 0, 0]\nclass = gi|755895103|gb|CP002580.1|-12"] ;
388 -> 389 ;
390 [label="adjusted score <= 0.3581\ngini = 0.9991\nsamples = 1168\nvalue = [1, 1, 1 ..., 0, 1, 1]\nclass = gi|30407128|emb|AL646053.1|-22"] ;
388 -> 390 ;
391 [label="gini = 0.0\nsamples = 1\nvalue = [0, 0, 0 ..., 0, 0, 0]\nclass = gi|951301122|gb|CP013140.1|-9"] ;
390 -> 391 ;
392 [label="adjusted score <= 0.3585\ngini = 0.9991\nsamples = 1167\nvalue = [1, 1, 1 ..., 0, 1, 1]\nclass = gi|30407128|emb|AL646053.1|-22"] ;
390 -> 392 ;
393 [label="gini = 0.0\nsamples = 1\nvalue = [0, 0, 0 ..., 0, 0, 0]\nclass = gi|951306652|gb|CP013141.1|-44"] ;
392 -> 393 ;
394 [label="adjusted score <= 0.3588\ngini = 0.9991\nsamples = 1166\nvalue = [1, 1, 1 ..., 0, 1, 1]\nclass = gi|30407128|emb|AL646053.1|-22"] ;
392 -> 394 ;
395 [label="gini = 0.0\nsamples = 1\nvalue = [0, 0, 0 ..., 0, 0, 0]\nclass = gi|937314366|gb|CP012831.1|-57"] ;
394 -> 395 ;
396 [label="adjusted score <= 0.3594\ngini = 0.9991\nsamples = 1165\nvalue = [1, 1, 1 ..., 0, 1, 1]\nclass = gi|30407128|emb|AL646053.1|-22"] ;
394 -> 396 ;
397 [label="gini = 0.0\nsamples = 1\nvalue = [0, 0, 0 ..., 0, 0, 0]\nclass = gi|730587126|gb|CP009747.1|-10"] ;
396 -> 397 ;
398 [label="adjusted score <= 0.3599\ngini = 0.9991\nsamples = 1164\nvalue = [1, 1, 1 ..., 0, 1, 1]\nclass = gi|30407128|emb|AL646053.1|-22"] ;
396 -> 398 ;
399 [label="gini = 0.0\nsamples = 1\nvalue = [0, 0, 0 ..., 0, 0, 0]\nclass = gi|937314366|gb|CP012831.1|-68"] ;
398 -> 399 ;
400 [label="adjusted score <= 0.3601\ngini = 0.9991\nsamples = 1163\nvalue = [1, 1, 1 ..., 0, 1, 1]\nclass = gi|30407128|emb|AL646053.1|-22"] ;
398 -> 400 ;
401 [label="gini = 0.0\nsamples = 1\nvalue = [0, 0, 0 ..., 0, 0, 0]\nclass = gi|951306652|gb|CP013141.1|-53"] ;
400 -> 401 ;
402 [label="adjusted score <= 0.3602\ngini = 0.9991\nsamples = 1162\nvalue = [1, 1, 1 ..., 0, 1, 1]\nclass = gi|30407128|emb|AL646053.1|-22"] ;
400 -> 402 ;
403 [label="gini = 0.0\nsamples = 1\nvalue = [0, 0, 0 ..., 0, 0, 0]\nclass = gi|520999024|gb|CP003969.1|-54"] ;
402 -> 403 ;
404 [label="adjusted score <= 0.361\ngini = 0.9991\nsamples = 1161\nvalue = [1, 1, 1 ..., 0, 1, 1]\nclass = gi|30407128|emb|AL646053.1|-22"] ;
402 -> 404 ;
405 [label="gini = 0.0\nsamples = 1\nvalue = [0, 0, 0 ..., 0, 0, 0]\nclass = gi|299073288|emb|FP885907.1|-9"] ;
404 -> 405 ;
406 [label="adjusted score <= 0.3623\ngini = 0.9991\nsamples = 1160\nvalue = [1, 1, 1 ..., 0, 1, 1]\nclass = gi|30407128|emb|AL646053.1|-22"] ;
404 -> 406 ;
407 [label="gini = 0.0\nsamples = 1\nvalue = [0, 0, 0 ..., 0, 0, 0]\nclass = gi|578005119|gb|CP007155.1|-25"] ;
406 -> 407 ;
408 [label="adjusted score <= 0.363\ngini = 0.9991\nsamples = 1159\nvalue = [1, 1, 1 ..., 0, 1, 1]\nclass = gi|30407128|emb|AL646053.1|-22"] ;
406 -> 408 ;
409 [label="gini = 0.0\nsamples = 1\nvalue = [0, 0, 0 ..., 0, 0, 0]\nclass = gi|772904020|gb|CP009323.1|-58"] ;
408 -> 409 ;
410 [label="adjusted score <= 0.363\ngini = 0.9991\nsamples = 1158\nvalue = [1, 1, 1 ..., 0, 1, 1]\nclass = gi|30407128|emb|AL646053.1|-22"] ;
408 -> 410 ;
411 [label="gini = 0.0\nsamples = 1\nvalue = [0, 0, 0 ..., 0, 0, 0]\nclass = gi|951306652|gb|CP013141.1|-55"] ;
410 -> 411 ;
412 [label="adjusted score <= 0.363\ngini = 0.9991\nsamples = 1157\nvalue = [1, 1, 1 ..., 0, 1, 1]\nclass = gi|30407128|emb|AL646053.1|-22"] ;
410 -> 412 ;
413 [label="gini = 0.0\nsamples = 1\nvalue = [0, 0, 0 ..., 0, 0, 0]\nclass = gi|937314366|gb|CP012831.1|-24"] ;
412 -> 413 ;
414 [label="adjusted score <= 0.3633\ngini = 0.9991\nsamples = 1156\nvalue = [1, 1, 1 ..., 0, 1, 1]\nclass = gi|30407128|emb|AL646053.1|-22"] ;
412 -> 414 ;
415 [label="gini = 0.0\nsamples = 1\nvalue = [0, 0, 0 ..., 0, 0, 0]\nclass = gi|937314366|gb|CP012831.1|-22"] ;
414 -> 415 ;
416 [label="adjusted score <= 0.3639\ngini = 0.9991\nsamples = 1155\nvalue = [1, 1, 1 ..., 0, 1, 1]\nclass = gi|30407128|emb|AL646053.1|-22"] ;
414 -> 416 ;
417 [label="gini = 0.0\nsamples = 1\nvalue = [0, 0, 0 ..., 0, 0, 0]\nclass = gi|30407128|emb|AL646053.1|-30"] ;
416 -> 417 ;
418 [label="adjusted score <= 0.3643\ngini = 0.9991\nsamples = 1154\nvalue = [1, 1, 1 ..., 0, 1, 1]\nclass = gi|30407128|emb|AL646053.1|-22"] ;
416 -> 418 ;
419 [label="gini = 0.0\nsamples = 1\nvalue = [0, 0, 0 ..., 0, 0, 0]\nclass = gi|749800189|gb|KP006601.1|-20"] ;
418 -> 419 ;
420 [label="adjusted score <= 0.3648\ngini = 0.9991\nsamples = 1153\nvalue = [1, 1, 1 ..., 0, 1, 1]\nclass = gi|30407128|emb|AL646053.1|-22"] ;
418 -> 420 ;
421 [label="gini = 0.5\nsamples = 2\nvalue = [0, 0, 0 ..., 0, 0, 0]\nclass = gi|365804155|gb|CP003219.1|-25"] ;
420 -> 421 ;
422 [label="adjusted score <= 0.3652\ngini = 0.9991\nsamples = 1151\nvalue = [1, 1, 1 ..., 0, 1, 1]\nclass = gi|30407128|emb|AL646053.1|-22"] ;
420 -> 422 ;
423 [label="gini = 0.0\nsamples = 1\nvalue = [0, 0, 0 ..., 0, 0, 0]\nclass = gi|937314366|gb|CP012831.1|-65"] ;
422 -> 423 ;
424 [label="adjusted score <= 0.3653\ngini = 0.9991\nsamples = 1150\nvalue = [1, 1, 1 ..., 0, 1, 1]\nclass = gi|30407128|emb|AL646053.1|-22"] ;
422 -> 424 ;
425 [label="gini = 0.5\nsamples = 2\nvalue = [0, 0, 0 ..., 0, 0, 0]\nclass = gi|941149846|gb|CP007212.1|-5"] ;
424 -> 425 ;
426 [label="adjusted score <= 0.3657\ngini = 0.9991\nsamples = 1148\nvalue = [1, 1, 1 ..., 0, 1, 1]\nclass = gi|30407128|emb|AL646053.1|-22"] ;
424 -> 426 ;
427 [label="gini = 0.5\nsamples = 2\nvalue = [0, 0, 0 ..., 0, 0, 0]\nclass = gi|337764029|emb|FQ859185.1|-13"] ;
426 -> 427 ;
428 [label="adjusted score <= 0.3659\ngini = 0.9991\nsamples = 1146\nvalue = [1, 1, 1 ..., 0, 1, 1]\nclass = gi|30407128|emb|AL646053.1|-22"] ;
426 -> 428 ;
429 [label="gini = 0.0\nsamples = 1\nvalue = [0, 0, 0 ..., 0, 0, 0]\nclass = gi|288912043|dbj|AP010947.1|-14"] ;
428 -> 429 ;
430 [label="adjusted score <= 0.3659\ngini = 0.9991\nsamples = 1145\nvalue = [1, 1, 1 ..., 0, 1, 1]\nclass = gi|30407128|emb|AL646053.1|-22"] ;
428 -> 430 ;
431 [label="gini = 0.0\nsamples = 1\nvalue = [0, 0, 0 ..., 0, 0, 0]\nclass = gi|772904020|gb|CP009323.1|-30"] ;
430 -> 431 ;
432 [label="adjusted score <= 0.366\ngini = 0.9991\nsamples = 1144\nvalue = [1, 1, 1 ..., 0, 1, 1]\nclass = gi|30407128|emb|AL646053.1|-22"] ;
430 -> 432 ;
433 [label="gini = 0.75\nsamples = 4\nvalue = [0, 0, 0 ..., 0, 0, 0]\nclass = gi|2318|emb|X54853.1|-3"] ;
432 -> 433 ;
434 [label="adjusted score <= 0.3661\ngini = 0.9991\nsamples = 1140\nvalue = [1, 1, 1 ..., 0, 1, 1]\nclass = gi|30407128|emb|AL646053.1|-22"] ;
432 -> 434 ;
435 [label="gini = 0.0\nsamples = 1\nvalue = [0, 0, 0 ..., 0, 0, 0]\nclass = gi|749800189|gb|KP006601.1|-19"] ;
434 -> 435 ;
436 [label="adjusted score <= 0.3663\ngini = 0.9991\nsamples = 1139\nvalue = [1, 1, 1 ..., 0, 1, 1]\nclass = gi|30407128|emb|AL646053.1|-22"] ;
434 -> 436 ;
437 [label="gini = 0.0\nsamples = 1\nvalue = [0, 0, 0 ..., 0, 0, 0]\nclass = gi|730587126|gb|CP009747.1|-12"] ;
436 -> 437 ;
438 [label="adjusted score <= 0.3666\ngini = 0.9991\nsamples = 1138\nvalue = [1, 1, 1 ..., 0, 1, 1]\nclass = gi|30407128|emb|AL646053.1|-22"] ;
436 -> 438 ;
439 [label="gini = 0.0\nsamples = 1\nvalue = [0, 0, 0 ..., 0, 0, 0]\nclass = gi|1046920989|gb|CP016559.1|-11"] ;
438 -> 439 ;
440 [label="adjusted score <= 0.3667\ngini = 0.9991\nsamples = 1137\nvalue = [1, 1, 1 ..., 0, 1, 1]\nclass = gi|30407128|emb|AL646053.1|-22"] ;
438 -> 440 ;
441 [label="gini = 0.5\nsamples = 2\nvalue = [0, 0, 0 ..., 0, 0, 0]\nclass = gi|146403799|gb|CP000494.1|-27"] ;
440 -> 441 ;
442 [label="adjusted score <= 0.367\ngini = 0.9991\nsamples = 1135\nvalue = [1, 1, 1 ..., 0, 1, 1]\nclass = gi|30407128|emb|AL646053.1|-22"] ;
440 -> 442 ;
443 [label="gini = 0.0\nsamples = 1\nvalue = [0, 0, 0 ..., 0, 0, 0]\nclass = gi|937314366|gb|CP012831.1|-26"] ;
442 -> 443 ;
444 [label="adjusted score <= 0.3673\ngini = 0.9991\nsamples = 1134\nvalue = [1, 1, 1 ..., 0, 1, 1]\nclass = gi|30407128|emb|AL646053.1|-22"] ;
442 -> 444 ;
445 [label="gini = 0.0\nsamples = 1\nvalue = [0, 0, 0 ..., 0, 0, 0]\nclass = gi|520999024|gb|CP003969.1|-53"] ;
444 -> 445 ;
446 [label="adjusted score <= 0.3674\ngini = 0.9991\nsamples = 1133\nvalue = [1, 1, 1 ..., 0, 1, 1]\nclass = gi|30407128|emb|AL646053.1|-22"] ;
444 -> 446 ;
447 [label="gini = 0.5\nsamples = 2\nvalue = [0, 0, 0 ..., 0, 0, 0]\nclass = gi|772904020|gb|CP009323.1|-61"] ;
446 -> 447 ;
448 [label="adjusted score <= 0.3677\ngini = 0.9991\nsamples = 1131\nvalue = [1, 1, 1 ..., 0, 1, 1]\nclass = gi|30407128|emb|AL646053.1|-22"] ;
446 -> 448 ;
449 [label="gini = 0.0\nsamples = 1\nvalue = [0, 0, 0 ..., 0, 0, 0]\nclass = gi|520999024|gb|CP003969.1|-65"] ;
448 -> 449 ;
450 [label="adjusted score <= 0.368\ngini = 0.9991\nsamples = 1130\nvalue = [1, 1, 1 ..., 0, 1, 1]\nclass = gi|30407128|emb|AL646053.1|-22"] ;
448 -> 450 ;
451 [label="gini = 0.0\nsamples = 1\nvalue = [0, 0, 0 ..., 0, 0, 0]\nclass = gi|959220006|emb|LN899824.1|-17"] ;
450 -> 451 ;
452 [label="adjusted score <= 0.3683\ngini = 0.9991\nsamples = 1129\nvalue = [1, 1, 1 ..., 0, 1, 1]\nclass = gi|30407128|emb|AL646053.1|-22"] ;
450 -> 452 ;
453 [label="gini = 0.0\nsamples = 1\nvalue = [0, 0, 0 ..., 0, 0, 0]\nclass = gi|959672264|emb|LN899820.1|-2"] ;
452 -> 453 ;
454 [label="adjusted score <= 0.3686\ngini = 0.9991\nsamples = 1128\nvalue = [1, 1, 1 ..., 0, 1, 1]\nclass = gi|30407128|emb|AL646053.1|-22"] ;
452 -> 454 ;
455 [label="gini = 0.0\nsamples = 1\nvalue = [0, 0, 0 ..., 0, 0, 0]\nclass = gi|730587126|gb|CP009747.1|-11"] ;
454 -> 455 ;
456 [label="adjusted score <= 0.3688\ngini = 0.9991\nsamples = 1127\nvalue = [1, 1, 1 ..., 0, 1, 1]\nclass = gi|30407128|emb|AL646053.1|-22"] ;
454 -> 456 ;
457 [label="gini = 0.0\nsamples = 1\nvalue = [0, 0, 0 ..., 0, 0, 0]\nclass = gi|772904020|gb|CP009323.1|-15"] ;
456 -> 457 ;
458 [label="adjusted score <= 0.3688\ngini = 0.9991\nsamples = 1126\nvalue = [1, 1, 1 ..., 0, 1, 1]\nclass = gi|30407128|emb|AL646053.1|-22"] ;
456 -> 458 ;
459 [label="gini = 0.0\nsamples = 1\nvalue = [0, 0, 0 ..., 0, 0, 0]\nclass = gi|959204059|emb|LN899819.1|-15"] ;
458 -> 459 ;
460 [label="adjusted score <= 0.3689\ngini = 0.9991\nsamples = 1125\nvalue = [1, 1, 1 ..., 0, 1, 1]\nclass = gi|30407128|emb|AL646053.1|-22"] ;
458 -> 460 ;
461 [label="gini = 0.0\nsamples = 1\nvalue = [0, 0, 0 ..., 0, 0, 0]\nclass = gi|937314366|gb|CP012831.1|-59"] ;
460 -> 461 ;
462 [label="adjusted score <= 0.3692\ngini = 0.9991\nsamples = 1124\nvalue = [1, 1, 1 ..., 0, 1, 1]\nclass = gi|30407128|emb|AL646053.1|-22"] ;
460 -> 462 ;
463 [label="gini = 0.0\nsamples = 1\nvalue = [0, 0, 0 ..., 0, 0, 0]\nclass = gi|578005119|gb|CP007155.1|-28"] ;
462 -> 463 ;
464 [label="adjusted score <= 0.3699\ngini = 0.9991\nsamples = 1123\nvalue = [1, 1, 1 ..., 0, 1, 1]\nclass = gi|30407128|emb|AL646053.1|-22"] ;
462 -> 464 ;
465 [label="gini = 0.0\nsamples = 1\nvalue = [0, 0, 0 ..., 0, 0, 0]\nclass = gi|772904020|gb|CP009323.1|-29"] ;
464 -> 465 ;
466 [label="adjusted score <= 0.3705\ngini = 0.9991\nsamples = 1122\nvalue = [1, 1, 1 ..., 0, 1, 1]\nclass = gi|30407128|emb|AL646053.1|-22"] ;
464 -> 466 ;
467 [label="gini = 0.5\nsamples = 2\nvalue = [0, 0, 0 ..., 0, 0, 0]\nclass = gi|520999024|gb|CP003969.1|-56"] ;
466 -> 467 ;
468 [label="adjusted score <= 0.3707\ngini = 0.9991\nsamples = 1120\nvalue = [1, 1, 1 ..., 0, 1, 1]\nclass = gi|30407128|emb|AL646053.1|-22"] ;
466 -> 468 ;
469 [label="gini = 0.0\nsamples = 1\nvalue = [0, 0, 0 ..., 0, 0, 0]\nclass = gi|937314366|gb|CP012831.1|-21"] ;
468 -> 469 ;
470 [label="adjusted score <= 0.3708\ngini = 0.9991\nsamples = 1119\nvalue = [1, 1, 1 ..., 0, 1, 1]\nclass = gi|30407128|emb|AL646053.1|-22"] ;
468 -> 470 ;
471 [label="gini = 0.0\nsamples = 1\nvalue = [0, 0, 0 ..., 0, 0, 0]\nclass = gi|146403799|gb|CP000494.1|-11"] ;
470 -> 471 ;
472 [label="adjusted score <= 0.3713\ngini = 0.9991\nsamples = 1118\nvalue = [1, 1, 1 ..., 0, 1, 1]\nclass = gi|30407128|emb|AL646053.1|-22"] ;
470 -> 472 ;
473 [label="gini = 0.5\nsamples = 2\nvalue = [0, 0, 0 ..., 0, 0, 0]\nclass = gi|772904020|gb|CP009323.1|-38"] ;
472 -> 473 ;
474 [label="adjusted score <= 0.3718\ngini = 0.9991\nsamples = 1116\nvalue = [1, 1, 1 ..., 0, 1, 1]\nclass = gi|30407128|emb|AL646053.1|-22"] ;
472 -> 474 ;
475 [label="gini = 0.0\nsamples = 1\nvalue = [0, 0, 0 ..., 0, 0, 0]\nclass = gi|1036556009|gb|CP015851.1|-13"] ;
474 -> 475 ;
476 [label="adjusted score <= 0.3721\ngini = 0.9991\nsamples = 1115\nvalue = [1, 1, 1 ..., 0, 1, 1]\nclass = gi|30407128|emb|AL646053.1|-22"] ;
474 -> 476 ;
477 [label="gini = 0.0\nsamples = 1\nvalue = [0, 0, 0 ..., 0, 0, 0]\nclass = gi|772904020|gb|CP009323.1|-44"] ;
476 -> 477 ;
478 [label="adjusted score <= 0.3726\ngini = 0.9991\nsamples = 1114\nvalue = [1, 1, 1 ..., 0, 1, 1]\nclass = gi|30407128|emb|AL646053.1|-22"] ;
476 -> 478 ;
479 [label="gini = 0.0\nsamples = 1\nvalue = [0, 0, 0 ..., 0, 0, 0]\nclass = gi|772904020|gb|CP009323.1|-50"] ;
478 -> 479 ;
480 [label="adjusted score <= 0.3731\ngini = 0.9991\nsamples = 1113\nvalue = [1, 1, 1 ..., 0, 1, 1]\nclass = gi|30407128|emb|AL646053.1|-22"] ;
478 -> 480 ;
481 [label="gini = 0.0\nsamples = 1\nvalue = [0, 0, 0 ..., 0, 0, 0]\nclass = gi|937314366|gb|CP012831.1|-46"] ;
480 -> 481 ;
482 [label="adjusted score <= 0.3733\ngini = 0.9991\nsamples = 1112\nvalue = [1, 1, 1 ..., 0, 1, 1]\nclass = gi|30407128|emb|AL646053.1|-22"] ;
480 -> 482 ;
483 [label="gini = 0.5\nsamples = 2\nvalue = [0, 0, 0 ..., 0, 0, 0]\nclass = gi|930571144|gb|CP012688.1|-11"] ;
482 -> 483 ;
484 [label="adjusted score <= 0.3734\ngini = 0.9991\nsamples = 1110\nvalue = [1, 1, 1 ..., 0, 1, 1]\nclass = gi|30407128|emb|AL646053.1|-22"] ;
482 -> 484 ;
485 [label="gini = 0.5\nsamples = 2\nvalue = [0, 0, 0 ..., 0, 0, 0]\nclass = gi|52222852|gb|AY735112.1|-4"] ;
484 -> 485 ;
486 [label="adjusted score <= 0.3737\ngini = 0.9991\nsamples = 1108\nvalue = [1, 1, 1 ..., 0, 1, 1]\nclass = gi|30407128|emb|AL646053.1|-22"] ;
484 -> 486 ;
487 [label="gini = 0.0\nsamples = 1\nvalue = [0, 0, 0 ..., 0, 0, 0]\nclass = gi|937314366|gb|CP012831.1|-53"] ;
486 -> 487 ;
488 [label="adjusted score <= 0.3739\ngini = 0.9991\nsamples = 1107\nvalue = [1, 1, 1 ..., 0, 1, 1]\nclass = gi|30407128|emb|AL646053.1|-22"] ;
486 -> 488 ;
489 [label="gini = 0.0\nsamples = 1\nvalue = [0, 0, 0 ..., 0, 0, 0]\nclass = gi|959209244|emb|LN899821.1|-10"] ;
488 -> 489 ;
490 [label="adjusted score <= 0.3742\ngini = 0.9991\nsamples = 1106\nvalue = [1, 1, 1 ..., 0, 1, 1]\nclass = gi|30407128|emb|AL646053.1|-22"] ;
488 -> 490 ;
491 [label="gini = 0.0\nsamples = 1\nvalue = [0, 0, 0 ..., 0, 0, 0]\nclass = gi|730587126|gb|CP009747.1|-32"] ;
490 -> 491 ;
492 [label="adjusted score <= 0.375\ngini = 0.9991\nsamples = 1105\nvalue = [1, 1, 1 ..., 0, 1, 1]\nclass = gi|30407128|emb|AL646053.1|-22"] ;
490 -> 492 ;
493 [label="gini = 0.0\nsamples = 1\nvalue = [0, 0, 0 ..., 0, 0, 0]\nclass = gi|772904020|gb|CP009323.1|-37"] ;
492 -> 493 ;
494 [label="adjusted score <= 0.3755\ngini = 0.9991\nsamples = 1104\nvalue = [1, 1, 1 ..., 0, 1, 1]\nclass = gi|30407128|emb|AL646053.1|-22"] ;
492 -> 494 ;
495 [label="gini = 0.0\nsamples = 1\nvalue = [0, 0, 0 ..., 0, 0, 0]\nclass = gi|1046920989|gb|CP016559.1|-13"] ;
494 -> 495 ;
496 [label="adjusted score <= 0.3758\ngini = 0.9991\nsamples = 1103\nvalue = [1, 1, 1 ..., 0, 1, 1]\nclass = gi|30407128|emb|AL646053.1|-22"] ;
494 -> 496 ;
497 [label="gini = 0.0\nsamples = 1\nvalue = [0, 0, 0 ..., 0, 1, 0]\nclass = gi|951301122|gb|CP013140.1|-97"] ;
496 -> 497 ;
498 [label="adjusted score <= 0.3763\ngini = 0.9991\nsamples = 1102\nvalue = [1, 1, 1 ..., 0, 0, 1]\nclass = gi|30407128|emb|AL646053.1|-22"] ;
496 -> 498 ;
499 [label="gini = 0.0\nsamples = 1\nvalue = [0, 0, 0 ..., 0, 0, 0]\nclass = gi|951306652|gb|CP013141.1|-43"] ;
498 -> 499 ;
500 [label="adjusted score <= 0.3766\ngini = 0.9991\nsamples = 1101\nvalue = [1, 1, 1 ..., 0, 0, 1]\nclass = gi|30407128|emb|AL646053.1|-22"] ;
498 -> 500 ;
501 [label="gini = 0.0\nsamples = 1\nvalue = [0, 0, 0 ..., 0, 0, 0]\nclass = gi|755895103|gb|CP002580.1|-4"] ;
500 -> 501 ;
502 [label="adjusted score <= 0.377\ngini = 0.9991\nsamples = 1100\nvalue = [1, 1, 1 ..., 0, 0, 1]\nclass = gi|30407128|emb|AL646053.1|-22"] ;
500 -> 502 ;
503 [label="gini = 0.0\nsamples = 1\nvalue = [0, 0, 0 ..., 0, 0, 0]\nclass = gi|772904020|gb|CP009323.1|-48"] ;
502 -> 503 ;
504 [label="adjusted score <= 0.3771\ngini = 0.9991\nsamples = 1099\nvalue = [1, 1, 1 ..., 0, 0, 1]\nclass = gi|30407128|emb|AL646053.1|-22"] ;
502 -> 504 ;
505 [label="gini = 0.0\nsamples = 1\nvalue = [0, 0, 0 ..., 0, 0, 0]\nclass = gi|520999024|gb|CP003969.1|-52"] ;
504 -> 505 ;
506 [label="adjusted score <= 0.3772\ngini = 0.9991\nsamples = 1098\nvalue = [1, 1, 1 ..., 0, 0, 1]\nclass = gi|30407128|emb|AL646053.1|-22"] ;
504 -> 506 ;
507 [label="gini = 0.0\nsamples = 1\nvalue = [0, 0, 0 ..., 0, 0, 0]\nclass = gi|730587126|gb|CP009747.1|-33"] ;
506 -> 507 ;
508 [label="adjusted score <= 0.3774\ngini = 0.9991\nsamples = 1097\nvalue = [1, 1, 1 ..., 0, 0, 1]\nclass = gi|30407128|emb|AL646053.1|-22"] ;
506 -> 508 ;
509 [label="gini = 0.0\nsamples = 1\nvalue = [0, 0, 0 ..., 0, 0, 0]\nclass = gi|959204059|emb|LN899819.1|-14"] ;
508 -> 509 ;
510 [label="adjusted score <= 0.3775\ngini = 0.9991\nsamples = 1096\nvalue = [1, 1, 1 ..., 0, 0, 1]\nclass = gi|30407128|emb|AL646053.1|-22"] ;
508 -> 510 ;
511 [label="gini = 0.0\nsamples = 1\nvalue = [0, 0, 0 ..., 0, 0, 0]\nclass = gi|951715918|gb|CP011131.1|-48"] ;
510 -> 511 ;
512 [label="adjusted score <= 0.3776\ngini = 0.9991\nsamples = 1095\nvalue = [1, 1, 1 ..., 0, 0, 1]\nclass = gi|30407128|emb|AL646053.1|-22"] ;
510 -> 512 ;
513 [label="gini = 0.6667\nsamples = 3\nvalue = [0, 0, 0 ..., 0, 0, 0]\nclass = gi|959209244|emb|LN899821.1|-32"] ;
512 -> 513 ;
514 [label="adjusted score <= 0.3777\ngini = 0.9991\nsamples = 1092\nvalue = [1, 1, 1 ..., 0, 0, 1]\nclass = gi|30407128|emb|AL646053.1|-22"] ;
512 -> 514 ;
515 [label="gini = 0.0\nsamples = 1\nvalue = [0, 0, 0 ..., 0, 0, 0]\nclass = gi|730587126|gb|CP009747.1|-13"] ;
514 -> 515 ;
516 [label="adjusted score <= 0.3781\ngini = 0.9991\nsamples = 1091\nvalue = [1, 1, 1 ..., 0, 0, 1]\nclass = gi|30407128|emb|AL646053.1|-22"] ;
514 -> 516 ;
517 [label="gini = 0.0\nsamples = 1\nvalue = [0, 0, 0 ..., 0, 0, 0]\nclass = gi|520999024|gb|CP003969.1|-83"] ;
516 -> 517 ;
518 [label="adjusted score <= 0.3787\ngini = 0.9991\nsamples = 1090\nvalue = [1, 1, 1 ..., 0, 0, 1]\nclass = gi|30407128|emb|AL646053.1|-22"] ;
516 -> 518 ;
519 [label="gini = 0.0\nsamples = 1\nvalue = [0, 0, 0 ..., 0, 0, 0]\nclass = gi|347668095|gb|JN596952.1|-26"] ;
518 -> 519 ;
520 [label="adjusted score <= 0.379\ngini = 0.9991\nsamples = 1089\nvalue = [1, 1, 1 ..., 0, 0, 1]\nclass = gi|30407128|emb|AL646053.1|-22"] ;
518 -> 520 ;
521 [label="gini = 0.0\nsamples = 1\nvalue = [0, 0, 0 ..., 0, 0, 0]\nclass = gi|826168461|gb|CP011371.1|-49"] ;
520 -> 521 ;
522 [label="adjusted score <= 0.3791\ngini = 0.9991\nsamples = 1088\nvalue = [1, 1, 1 ..., 0, 0, 1]\nclass = gi|30407128|emb|AL646053.1|-22"] ;
520 -> 522 ;
523 [label="gini = 0.0\nsamples = 1\nvalue = [0, 0, 0 ..., 0, 0, 0]\nclass = gi|937314366|gb|CP012831.1|-45"] ;
522 -> 523 ;
524 [label="adjusted score <= 0.3793\ngini = 0.9991\nsamples = 1087\nvalue = [1, 1, 1 ..., 0, 0, 1]\nclass = gi|30407128|emb|AL646053.1|-22"] ;
522 -> 524 ;
525 [label="gini = 0.0\nsamples = 1\nvalue = [0, 0, 0 ..., 0, 0, 0]\nclass = gi|951306652|gb|CP013141.1|-61"] ;
524 -> 525 ;
526 [label="adjusted score <= 0.38\ngini = 0.9991\nsamples = 1086\nvalue = [1, 1, 1 ..., 0, 0, 1]\nclass = gi|30407128|emb|AL646053.1|-22"] ;
524 -> 526 ;
527 [label="gini = 0.6667\nsamples = 3\nvalue = [0, 0, 0 ..., 0, 0, 0]\nclass = gi|930571144|gb|CP012688.1|-20"] ;
526 -> 527 ;
528 [label="adjusted score <= 0.3806\ngini = 0.9991\nsamples = 1083\nvalue = [1, 1, 1 ..., 0, 0, 1]\nclass = gi|30407128|emb|AL646053.1|-22"] ;
526 -> 528 ;
529 [label="gini = 0.0\nsamples = 1\nvalue = [0, 0, 0 ..., 0, 0, 0]\nclass = gi|52222852|gb|AY735112.1|-8"] ;
528 -> 529 ;
530 [label="adjusted score <= 0.3808\ngini = 0.9991\nsamples = 1082\nvalue = [1, 1, 1 ..., 0, 0, 1]\nclass = gi|30407128|emb|AL646053.1|-22"] ;
528 -> 530 ;
531 [label="gini = 0.0\nsamples = 1\nvalue = [0, 0, 0 ..., 0, 0, 0]\nclass = gi|520999024|gb|CP003969.1|-30"] ;
530 -> 531 ;
532 [label="adjusted score <= 0.3812\ngini = 0.9991\nsamples = 1081\nvalue = [1, 1, 1 ..., 0, 0, 1]\nclass = gi|30407128|emb|AL646053.1|-22"] ;
530 -> 532 ;
533 [label="gini = 0.5\nsamples = 2\nvalue = [0, 0, 0 ..., 0, 0, 0]\nclass = gi|689271676|gb|CP003811.1|-31"] ;
532 -> 533 ;
534 [label="adjusted score <= 0.3815\ngini = 0.9991\nsamples = 1079\nvalue = [1, 1, 1 ..., 0, 0, 1]\nclass = gi|30407128|emb|AL646053.1|-22"] ;
532 -> 534 ;
535 [label="gini = 0.0\nsamples = 1\nvalue = [0, 0, 0 ..., 0, 0, 0]\nclass = gi|1046920989|gb|CP016559.1|-26"] ;
534 -> 535 ;
536 [label="adjusted score <= 0.3817\ngini = 0.9991\nsamples = 1078\nvalue = [1, 1, 1 ..., 0, 0, 1]\nclass = gi|30407128|emb|AL646053.1|-22"] ;
534 -> 536 ;
537 [label="gini = 0.0\nsamples = 1\nvalue = [0, 0, 0 ..., 0, 0, 0]\nclass = gi|951301122|gb|CP013140.1|-55"] ;
536 -> 537 ;
538 [label="adjusted score <= 0.3818\ngini = 0.9991\nsamples = 1077\nvalue = [1, 1, 1 ..., 0, 0, 1]\nclass = gi|30407128|emb|AL646053.1|-22"] ;
536 -> 538 ;
539 [label="gini = 0.0\nsamples = 1\nvalue = [0, 0, 0 ..., 0, 0, 0]\nclass = gi|13398457|gb|AF335329.1|-1"] ;
538 -> 539 ;
540 [label="adjusted score <= 0.3819\ngini = 0.9991\nsamples = 1076\nvalue = [1, 1, 1 ..., 0, 0, 1]\nclass = gi|30407128|emb|AL646053.1|-22"] ;
538 -> 540 ;
541 [label="gini = 0.0\nsamples = 1\nvalue = [0, 0, 0 ..., 0, 0, 0]\nclass = gi|578005119|gb|CP007155.1|-67"] ;
540 -> 541 ;
542 [label="adjusted score <= 0.3821\ngini = 0.9991\nsamples = 1075\nvalue = [1, 1, 1 ..., 0, 0, 1]\nclass = gi|30407128|emb|AL646053.1|-22"] ;
540 -> 542 ;
543 [label="gini = 0.5\nsamples = 2\nvalue = [0, 0, 0 ..., 0, 0, 0]\nclass = gi|959236254|emb|LN899827.1|-13"] ;
542 -> 543 ;
544 [label="adjusted score <= 0.3823\ngini = 0.9991\nsamples = 1073\nvalue = [1, 1, 1 ..., 0, 0, 1]\nclass = gi|30407128|emb|AL646053.1|-22"] ;
542 -> 544 ;
545 [label="gini = 0.0\nsamples = 1\nvalue = [0, 0, 0 ..., 0, 0, 0]\nclass = gi|578005119|gb|CP007155.1|-59"] ;
544 -> 545 ;
546 [label="adjusted score <= 0.3825\ngini = 0.9991\nsamples = 1072\nvalue = [1, 1, 1 ..., 0, 0, 1]\nclass = gi|30407128|emb|AL646053.1|-22"] ;
544 -> 546 ;
547 [label="gini = 0.5\nsamples = 2\nvalue = [0, 0, 0 ..., 0, 0, 0]\nclass = gi|365804155|gb|CP003219.1|-10"] ;
546 -> 547 ;
548 [label="adjusted score <= 0.3829\ngini = 0.9991\nsamples = 1070\nvalue = [1, 1, 1 ..., 0, 0, 1]\nclass = gi|30407128|emb|AL646053.1|-22"] ;
546 -> 548 ;
549 [label="gini = 0.0\nsamples = 1\nvalue = [0, 0, 0 ..., 0, 0, 0]\nclass = gi|951301122|gb|CP013140.1|-57"] ;
548 -> 549 ;
550 [label="adjusted score <= 0.3834\ngini = 0.9991\nsamples = 1069\nvalue = [1, 1, 1 ..., 0, 0, 1]\nclass = gi|30407128|emb|AL646053.1|-22"] ;
548 -> 550 ;
551 [label="gini = 0.0\nsamples = 1\nvalue = [0, 0, 0 ..., 0, 0, 0]\nclass = gi|288912043|dbj|AP010947.1|-13"] ;
550 -> 551 ;
552 [label="adjusted score <= 0.3837\ngini = 0.9991\nsamples = 1068\nvalue = [1, 1, 1 ..., 0, 0, 1]\nclass = gi|30407128|emb|AL646053.1|-22"] ;
550 -> 552 ;
553 [label="gini = 0.0\nsamples = 1\nvalue = [0, 0, 0 ..., 0, 0, 0]\nclass = gi|578005119|gb|CP007155.1|-66"] ;
552 -> 553 ;
554 [label="adjusted score <= 0.3839\ngini = 0.9991\nsamples = 1067\nvalue = [1, 1, 1 ..., 0, 0, 1]\nclass = gi|30407128|emb|AL646053.1|-22"] ;
552 -> 554 ;
555 [label="gini = 0.0\nsamples = 1\nvalue = [0, 0, 0 ..., 0, 0, 0]\nclass = gi|520999024|gb|CP003969.1|-49"] ;
554 -> 555 ;
556 [label="adjusted score <= 0.3841\ngini = 0.9991\nsamples = 1066\nvalue = [1, 1, 1 ..., 0, 0, 1]\nclass = gi|30407128|emb|AL646053.1|-22"] ;
554 -> 556 ;
557 [label="gini = 0.8571\nsamples = 7\nvalue = [0, 0, 0 ..., 0, 0, 0]\nclass = gi|959672264|emb|LN899820.1|-26"] ;
556 -> 557 ;
558 [label="adjusted score <= 0.3847\ngini = 0.9991\nsamples = 1059\nvalue = [1, 1, 1 ..., 0, 0, 1]\nclass = gi|30407128|emb|AL646053.1|-22"] ;
556 -> 558 ;
559 [label="gini = 0.0\nsamples = 1\nvalue = [0, 0, 0 ..., 0, 0, 0]\nclass = gi|951715918|gb|CP011131.1|-36"] ;
558 -> 559 ;
560 [label="adjusted score <= 0.3851\ngini = 0.9991\nsamples = 1058\nvalue = [1, 1, 1 ..., 0, 0, 1]\nclass = gi|30407128|emb|AL646053.1|-22"] ;
558 -> 560 ;
561 [label="gini = 0.0\nsamples = 1\nvalue = [0, 0, 0 ..., 0, 0, 0]\nclass = gi|951715918|gb|CP011131.1|-47"] ;
560 -> 561 ;
562 [label="adjusted score <= 0.3852\ngini = 0.9991\nsamples = 1057\nvalue = [1, 1, 1 ..., 0, 0, 1]\nclass = gi|30407128|emb|AL646053.1|-22"] ;
560 -> 562 ;
563 [label="gini = 0.0\nsamples = 1\nvalue = [0, 0, 0 ..., 0, 0, 0]\nclass = gi|992085625|ref|XM_015553176.1|-1"] ;
562 -> 563 ;
564 [label="adjusted score <= 0.3854\ngini = 0.9991\nsamples = 1056\nvalue = [1, 1, 1 ..., 0, 0, 1]\nclass = gi|30407128|emb|AL646053.1|-22"] ;
562 -> 564 ;
565 [label="gini = 0.0\nsamples = 1\nvalue = [0, 0, 0 ..., 0, 0, 0]\nclass = gi|951715918|gb|CP011131.1|-83"] ;
564 -> 565 ;
566 [label="adjusted score <= 0.3856\ngini = 0.9991\nsamples = 1055\nvalue = [1, 1, 1 ..., 0, 0, 1]\nclass = gi|30407128|emb|AL646053.1|-22"] ;
564 -> 566 ;
567 [label="gini = 0.0\nsamples = 1\nvalue = [0, 0, 0 ..., 0, 0, 0]\nclass = gi|951306652|gb|CP013141.1|-39"] ;
566 -> 567 ;
568 [label="adjusted score <= 0.386\ngini = 0.9991\nsamples = 1054\nvalue = [1, 1, 1 ..., 0, 0, 1]\nclass = gi|30407128|emb|AL646053.1|-22"] ;
566 -> 568 ;
569 [label="gini = 0.5\nsamples = 2\nvalue = [0, 0, 0 ..., 0, 0, 0]\nclass = gi|299073288|emb|FP885907.1|-17"] ;
568 -> 569 ;
570 [label="adjusted score <= 0.3863\ngini = 0.999\nsamples = 1052\nvalue = [1, 1, 1 ..., 0, 0, 1]\nclass = gi|30407128|emb|AL646053.1|-22"] ;
568 -> 570 ;
571 [label="gini = 0.0\nsamples = 1\nvalue = [0, 0, 0 ..., 0, 0, 0]\nclass = gi|469775917|gb|CP004013.1|-9"] ;
570 -> 571 ;
572 [label="adjusted score <= 0.3866\ngini = 0.999\nsamples = 1051\nvalue = [1, 1, 1 ..., 0, 0, 1]\nclass = gi|30407128|emb|AL646053.1|-22"] ;
570 -> 572 ;
573 [label="gini = 0.0\nsamples = 1\nvalue = [0, 0, 0 ..., 0, 0, 0]\nclass = gi|826168461|gb|CP011371.1|-29"] ;
572 -> 573 ;
574 [label="adjusted score <= 0.3873\ngini = 0.999\nsamples = 1050\nvalue = [1, 1, 1 ..., 0, 0, 1]\nclass = gi|30407128|emb|AL646053.1|-22"] ;
572 -> 574 ;
575 [label="gini = 0.0\nsamples = 1\nvalue = [0, 0, 0 ..., 0, 0, 0]\nclass = gi|951306652|gb|CP013141.1|-38"] ;
574 -> 575 ;
576 [label="adjusted score <= 0.3878\ngini = 0.999\nsamples = 1049\nvalue = [1, 1, 1 ..., 0, 0, 1]\nclass = gi|30407128|emb|AL646053.1|-22"] ;
574 -> 576 ;
577 [label="gini = 0.0\nsamples = 1\nvalue = [0, 0, 0 ..., 0, 0, 0]\nclass = gi|826168461|gb|CP011371.1|-79"] ;
576 -> 577 ;
578 [label="adjusted score <= 0.3879\ngini = 0.999\nsamples = 1048\nvalue = [1, 1, 1 ..., 0, 0, 1]\nclass = gi|30407128|emb|AL646053.1|-22"] ;
576 -> 578 ;
579 [label="gini = 0.0\nsamples = 1\nvalue = [0, 0, 0 ..., 0, 0, 0]\nclass = gi|730587126|gb|CP009747.1|-29"] ;
578 -> 579 ;
580 [label="adjusted score <= 0.3882\ngini = 0.999\nsamples = 1047\nvalue = [1, 1, 1 ..., 0, 0, 1]\nclass = gi|30407128|emb|AL646053.1|-22"] ;
578 -> 580 ;
581 [label="gini = 0.0\nsamples = 1\nvalue = [0, 0, 0 ..., 0, 0, 0]\nclass = gi|520999024|gb|CP003969.1|-47"] ;
580 -> 581 ;
582 [label="adjusted score <= 0.3884\ngini = 0.999\nsamples = 1046\nvalue = [1, 1, 1 ..., 0, 0, 1]\nclass = gi|30407128|emb|AL646053.1|-22"] ;
580 -> 582 ;
583 [label="gini = 0.5\nsamples = 2\nvalue = [0, 0, 0 ..., 0, 0, 0]\nclass = gi|1752727|dbj|D50308.1|-10"] ;
582 -> 583 ;
584 [label="adjusted score <= 0.3886\ngini = 0.999\nsamples = 1044\nvalue = [1, 1, 1 ..., 0, 0, 1]\nclass = gi|30407128|emb|AL646053.1|-22"] ;
582 -> 584 ;
585 [label="gini = 0.0\nsamples = 1\nvalue = [0, 0, 0 ..., 0, 0, 0]\nclass = gi|937314366|gb|CP012831.1|-17"] ;
584 -> 585 ;
586 [label="adjusted score <= 0.3888\ngini = 0.999\nsamples = 1043\nvalue = [1, 1, 1 ..., 0, 0, 1]\nclass = gi|30407128|emb|AL646053.1|-22"] ;
584 -> 586 ;
587 [label="gini = 0.0\nsamples = 1\nvalue = [0, 0, 0 ..., 0, 0, 0]\nclass = gi|755895103|gb|CP002580.1|-9"] ;
586 -> 587 ;
588 [label="adjusted score <= 0.3891\ngini = 0.999\nsamples = 1042\nvalue = [1, 1, 1 ..., 0, 0, 1]\nclass = gi|30407128|emb|AL646053.1|-22"] ;
586 -> 588 ;
589 [label="gini = 0.0\nsamples = 1\nvalue = [0, 0, 0 ..., 0, 0, 0]\nclass = gi|299068436|emb|FP885896.1|-25"] ;
588 -> 589 ;
590 [label="adjusted score <= 0.3893\ngini = 0.999\nsamples = 1041\nvalue = [1, 1, 1 ..., 0, 0, 1]\nclass = gi|30407128|emb|AL646053.1|-22"] ;
588 -> 590 ;
591 [label="gini = 0.5\nsamples = 2\nvalue = [0, 0, 0 ..., 0, 0, 0]\nclass = gi|337764029|emb|FQ859185.1|-1"] ;
590 -> 591 ;
592 [label="adjusted score <= 0.3894\ngini = 0.999\nsamples = 1039\nvalue = [1, 1, 1 ..., 0, 0, 1]\nclass = gi|30407128|emb|AL646053.1|-22"] ;
590 -> 592 ;
593 [label="gini = 0.6667\nsamples = 3\nvalue = [0, 0, 0 ..., 0, 0, 0]\nclass = gi|578005119|gb|CP007155.1|-54"] ;
592 -> 593 ;
594 [label="adjusted score <= 0.3895\ngini = 0.999\nsamples = 1036\nvalue = [1, 1, 1 ..., 0, 0, 1]\nclass = gi|30407128|emb|AL646053.1|-22"] ;
592 -> 594 ;
595 [label="gini = 0.0\nsamples = 1\nvalue = [0, 0, 0 ..., 0, 0, 0]\nclass = gi|951306652|gb|CP013141.1|-47"] ;
594 -> 595 ;
596 [label="adjusted score <= 0.3898\ngini = 0.999\nsamples = 1035\nvalue = [1, 1, 1 ..., 0, 0, 1]\nclass = gi|30407128|emb|AL646053.1|-22"] ;
594 -> 596 ;
597 [label="gini = 0.0\nsamples = 1\nvalue = [0, 0, 0 ..., 0, 0, 0]\nclass = gi|1046920989|gb|CP016559.1|-25"] ;
596 -> 597 ;
598 [label="adjusted score <= 0.3901\ngini = 0.999\nsamples = 1034\nvalue = [1, 1, 1 ..., 0, 0, 1]\nclass = gi|30407128|emb|AL646053.1|-22"] ;
596 -> 598 ;
599 [label="gini = 0.0\nsamples = 1\nvalue = [0, 0, 0 ..., 0, 0, 0]\nclass = gi|755895103|gb|CP002580.1|-10"] ;
598 -> 599 ;
600 [label="adjusted score <= 0.3903\ngini = 0.999\nsamples = 1033\nvalue = [1, 1, 1 ..., 0, 0, 1]\nclass = gi|30407128|emb|AL646053.1|-22"] ;
598 -> 600 ;
601 [label="gini = 0.0\nsamples = 1\nvalue = [0, 0, 0 ..., 0, 0, 0]\nclass = gi|772904020|gb|CP009323.1|-53"] ;
600 -> 601 ;
602 [label="adjusted score <= 0.3904\ngini = 0.999\nsamples = 1032\nvalue = [1, 1, 1 ..., 0, 0, 1]\nclass = gi|30407128|emb|AL646053.1|-22"] ;
600 -> 602 ;
603 [label="gini = 0.0\nsamples = 1\nvalue = [0, 0, 0 ..., 0, 0, 0]\nclass = gi|299068436|emb|FP885896.1|-19"] ;
602 -> 603 ;
604 [label="adjusted score <= 0.3907\ngini = 0.999\nsamples = 1031\nvalue = [1, 1, 1 ..., 0, 0, 1]\nclass = gi|30407128|emb|AL646053.1|-22"] ;
602 -> 604 ;
605 [label="gini = 0.0\nsamples = 1\nvalue = [0, 0, 0 ..., 0, 0, 0]\nclass = gi|951301122|gb|CP013140.1|-83"] ;
604 -> 605 ;
606 [label="adjusted score <= 0.391\ngini = 0.999\nsamples = 1030\nvalue = [1, 1, 1 ..., 0, 0, 1]\nclass = gi|30407128|emb|AL646053.1|-22"] ;
604 -> 606 ;
607 [label="gini = 0.0\nsamples = 1\nvalue = [0, 0, 0 ..., 0, 0, 0]\nclass = gi|951306652|gb|CP013141.1|-57"] ;
606 -> 607 ;
608 [label="adjusted score <= 0.3911\ngini = 0.999\nsamples = 1029\nvalue = [1, 1, 1 ..., 0, 0, 1]\nclass = gi|30407128|emb|AL646053.1|-22"] ;
606 -> 608 ;
609 [label="gini = 0.0\nsamples = 1\nvalue = [0, 0, 0 ..., 0, 0, 0]\nclass = gi|951301122|gb|CP013140.1|-34"] ;
608 -> 609 ;
610 [label="adjusted score <= 0.3912\ngini = 0.999\nsamples = 1028\nvalue = [1, 1, 1 ..., 0, 0, 1]\nclass = gi|30407128|emb|AL646053.1|-22"] ;
608 -> 610 ;
611 [label="gini = 0.0\nsamples = 1\nvalue = [0, 0, 0 ..., 0, 0, 0]\nclass = gi|951301122|gb|CP013140.1|-94"] ;
610 -> 611 ;
612 [label="adjusted score <= 0.3914\ngini = 0.999\nsamples = 1027\nvalue = [1, 1, 1 ..., 0, 0, 1]\nclass = gi|30407128|emb|AL646053.1|-22"] ;
610 -> 612 ;
613 [label="gini = 0.5\nsamples = 2\nvalue = [0, 0, 0 ..., 0, 0, 0]\nclass = gi|772904020|gb|CP009323.1|-43"] ;
612 -> 613 ;
614 [label="adjusted score <= 0.3916\ngini = 0.999\nsamples = 1025\nvalue = [1, 1, 1 ..., 0, 0, 1]\nclass = gi|30407128|emb|AL646053.1|-22"] ;
612 -> 614 ;
615 [label="gini = 0.0\nsamples = 1\nvalue = [0, 0, 0 ..., 0, 0, 0]\nclass = gi|520999024|gb|CP003969.1|-38"] ;
614 -> 615 ;
616 [label="adjusted score <= 0.3919\ngini = 0.999\nsamples = 1024\nvalue = [1, 1, 1 ..., 0, 0, 1]\nclass = gi|30407128|emb|AL646053.1|-22"] ;
614 -> 616 ;
617 [label="gini = 0.0\nsamples = 1\nvalue = [0, 0, 0 ..., 0, 0, 0]\nclass = gi|299073288|emb|FP885907.1|-13"] ;
616 -> 617 ;
618 [label="adjusted score <= 0.3925\ngini = 0.999\nsamples = 1023\nvalue = [1, 1, 1 ..., 0, 0, 1]\nclass = gi|30407128|emb|AL646053.1|-22"] ;
616 -> 618 ;
619 [label="gini = 0.0\nsamples = 1\nvalue = [0, 0, 0 ..., 0, 0, 0]\nclass = gi|578005119|gb|CP007155.1|-5"] ;
618 -> 619 ;
620 [label="adjusted score <= 0.3932\ngini = 0.999\nsamples = 1022\nvalue = [1, 1, 1 ..., 0, 0, 1]\nclass = gi|30407128|emb|AL646053.1|-22"] ;
618 -> 620 ;
621 [label="gini = 0.0\nsamples = 1\nvalue = [0, 0, 0 ..., 0, 0, 0]\nclass = gi|951306652|gb|CP013141.1|-37"] ;
620 -> 621 ;
622 [label="adjusted score <= 0.3936\ngini = 0.999\nsamples = 1021\nvalue = [1, 1, 1 ..., 0, 0, 1]\nclass = gi|30407128|emb|AL646053.1|-22"] ;
620 -> 622 ;
623 [label="gini = 0.6667\nsamples = 3\nvalue = [0, 0, 0 ..., 0, 0, 0]\nclass = gi|959236254|emb|LN899827.1|-32"] ;
622 -> 623 ;
624 [label="adjusted score <= 0.3941\ngini = 0.999\nsamples = 1018\nvalue = [1, 1, 1 ..., 0, 0, 1]\nclass = gi|30407128|emb|AL646053.1|-22"] ;
622 -> 624 ;
625 [label="gini = 0.0\nsamples = 1\nvalue = [0, 0, 0 ..., 0, 0, 0]\nclass = gi|578005119|gb|CP007155.1|-13"] ;
624 -> 625 ;
626 [label="adjusted score <= 0.3946\ngini = 0.999\nsamples = 1017\nvalue = [1, 1, 1 ..., 0, 0, 1]\nclass = gi|30407128|emb|AL646053.1|-22"] ;
624 -> 626 ;
627 [label="gini = 0.0\nsamples = 1\nvalue = [0, 0, 0 ..., 0, 0, 0]\nclass = gi|347668095|gb|JN596952.1|-31"] ;
626 -> 627 ;
628 [label="adjusted score <= 0.3948\ngini = 0.999\nsamples = 1016\nvalue = [1, 1, 1 ..., 0, 0, 1]\nclass = gi|30407128|emb|AL646053.1|-22"] ;
626 -> 628 ;
629 [label="gini = 0.5\nsamples = 2\nvalue = [0, 0, 0 ..., 0, 0, 0]\nclass = gi|347668095|gb|JN596952.1|-28"] ;
628 -> 629 ;
630 [label="adjusted score <= 0.3952\ngini = 0.999\nsamples = 1014\nvalue = [1, 1, 1 ..., 0, 0, 1]\nclass = gi|30407128|emb|AL646053.1|-22"] ;
628 -> 630 ;
631 [label="gini = 0.0\nsamples = 1\nvalue = [0, 0, 0 ..., 0, 0, 0]\nclass = gi|937314366|gb|CP012831.1|-15"] ;
630 -> 631 ;
632 [label="adjusted score <= 0.3956\ngini = 0.999\nsamples = 1013\nvalue = [1, 1, 1 ..., 0, 0, 1]\nclass = gi|30407128|emb|AL646053.1|-22"] ;
630 -> 632 ;
633 [label="gini = 0.0\nsamples = 1\nvalue = [0, 0, 0 ..., 0, 0, 0]\nclass = gi|951306652|gb|CP013141.1|-30"] ;
632 -> 633 ;
634 [label="adjusted score <= 0.396\ngini = 0.999\nsamples = 1012\nvalue = [1, 1, 1 ..., 0, 0, 1]\nclass = gi|30407128|emb|AL646053.1|-22"] ;
632 -> 634 ;
635 [label="gini = 0.0\nsamples = 1\nvalue = [0, 0, 0 ..., 0, 0, 0]\nclass = gi|951301122|gb|CP013140.1|-25"] ;
634 -> 635 ;
636 [label="adjusted score <= 0.3966\ngini = 0.999\nsamples = 1011\nvalue = [1, 1, 1 ..., 0, 0, 1]\nclass = gi|30407128|emb|AL646053.1|-22"] ;
634 -> 636 ;
637 [label="gini = 0.75\nsamples = 4\nvalue = [0, 0, 0 ..., 0, 0, 0]\nclass = gi|959672264|emb|LN899820.1|-32"] ;
636 -> 637 ;
638 [label="adjusted score <= 0.3971\ngini = 0.999\nsamples = 1007\nvalue = [1, 1, 1 ..., 0, 0, 1]\nclass = gi|30407128|emb|AL646053.1|-22"] ;
636 -> 638 ;
639 [label="gini = 0.5\nsamples = 2\nvalue = [0, 0, 0 ..., 0, 0, 0]\nclass = gi|469775917|gb|CP004013.1|-15"] ;
638 -> 639 ;
640 [label="adjusted score <= 0.3975\ngini = 0.999\nsamples = 1005\nvalue = [1, 1, 1 ..., 0, 0, 1]\nclass = gi|30407128|emb|AL646053.1|-22"] ;
638 -> 640 ;
641 [label="gini = 0.0\nsamples = 1\nvalue = [0, 0, 0 ..., 0, 0, 0]\nclass = gi|520999024|gb|CP003969.1|-45"] ;
640 -> 641 ;
642 [label="adjusted score <= 0.398\ngini = 0.999\nsamples = 1004\nvalue = [1, 1, 1 ..., 0, 0, 1]\nclass = gi|30407128|emb|AL646053.1|-22"] ;
640 -> 642 ;
643 [label="gini = 0.0\nsamples = 1\nvalue = [0, 0, 0 ..., 0, 0, 0]\nclass = gi|1046920989|gb|CP016559.1|-9"] ;
642 -> 643 ;
644 [label="adjusted score <= 0.3984\ngini = 0.999\nsamples = 1003\nvalue = [1, 1, 1 ..., 0, 0, 1]\nclass = gi|30407128|emb|AL646053.1|-22"] ;
642 -> 644 ;
645 [label="gini = 0.5\nsamples = 2\nvalue = [0, 0, 0 ..., 0, 0, 0]\nclass = gi|299068436|emb|FP885896.1|-27"] ;
644 -> 645 ;
646 [label="adjusted score <= 0.3985\ngini = 0.999\nsamples = 1001\nvalue = [1, 1, 1 ..., 0, 0, 1]\nclass = gi|30407128|emb|AL646053.1|-22"] ;
644 -> 646 ;
647 [label="gini = 0.6667\nsamples = 3\nvalue = [0, 0, 0 ..., 0, 0, 0]\nclass = gi|951715918|gb|CP011131.1|-60"] ;
646 -> 647 ;
648 [label="adjusted score <= 0.3988\ngini = 0.999\nsamples = 998\nvalue = [1, 1, 1 ..., 0, 0, 1]\nclass = gi|30407128|emb|AL646053.1|-22"] ;
646 -> 648 ;
649 [label="gini = 0.0\nsamples = 1\nvalue = [0, 0, 0 ..., 0, 0, 0]\nclass = gi|772904020|gb|CP009323.1|-23"] ;
648 -> 649 ;
650 [label="adjusted score <= 0.3994\ngini = 0.999\nsamples = 997\nvalue = [1, 1, 1 ..., 0, 0, 1]\nclass = gi|30407128|emb|AL646053.1|-22"] ;
648 -> 650 ;
651 [label="gini = 0.0\nsamples = 1\nvalue = [0, 0, 0 ..., 0, 0, 0]\nclass = gi|299068436|emb|FP885896.1|-8"] ;
650 -> 651 ;
652 [label="adjusted score <= 0.4004\ngini = 0.999\nsamples = 996\nvalue = [1, 1, 1 ..., 0, 0, 1]\nclass = gi|30407128|emb|AL646053.1|-22"] ;
650 -> 652 ;
653 [label="gini = 0.875\nsamples = 8\nvalue = [0, 0, 0 ..., 0, 0, 0]\nclass = gi|937314366|gb|CP012831.1|-18"] ;
652 -> 653 ;
654 [label="adjusted score <= 0.401\ngini = 0.999\nsamples = 988\nvalue = [1, 1, 1 ..., 0, 0, 1]\nclass = gi|30407128|emb|AL646053.1|-22"] ;
652 -> 654 ;
655 [label="gini = 0.0\nsamples = 1\nvalue = [0, 0, 0 ..., 0, 0, 0]\nclass = gi|511485|gb|U12015.1|SCU12015-1"] ;
654 -> 655 ;
656 [label="adjusted score <= 0.4012\ngini = 0.999\nsamples = 987\nvalue = [1, 1, 1 ..., 0, 0, 1]\nclass = gi|30407128|emb|AL646053.1|-22"] ;
654 -> 656 ;
657 [label="gini = 0.0\nsamples = 1\nvalue = [0, 0, 0 ..., 0, 0, 0]\nclass = gi|30407128|emb|AL646053.1|-10"] ;
656 -> 657 ;
658 [label="adjusted score <= 0.4014\ngini = 0.999\nsamples = 986\nvalue = [1, 1, 1 ..., 0, 0, 1]\nclass = gi|30407128|emb|AL646053.1|-22"] ;
656 -> 658 ;
659 [label="gini = 0.5\nsamples = 2\nvalue = [0, 0, 0 ..., 0, 0, 0]\nclass = gi|365804155|gb|CP003219.1|-9"] ;
658 -> 659 ;
660 [label="adjusted score <= 0.4016\ngini = 0.999\nsamples = 984\nvalue = [1, 1, 1 ..., 0, 0, 1]\nclass = gi|30407128|emb|AL646053.1|-22"] ;
658 -> 660 ;
661 [label="gini = 0.0\nsamples = 1\nvalue = [0, 0, 0 ..., 0, 0, 0]\nclass = gi|951301122|gb|CP013140.1|-79"] ;
660 -> 661 ;
662 [label="adjusted score <= 0.4017\ngini = 0.999\nsamples = 983\nvalue = [1, 1, 1 ..., 0, 0, 1]\nclass = gi|30407128|emb|AL646053.1|-22"] ;
660 -> 662 ;
663 [label="gini = 0.0\nsamples = 1\nvalue = [0, 0, 0 ..., 0, 0, 0]\nclass = gi|299068436|emb|FP885896.1|-23"] ;
662 -> 663 ;
664 [label="adjusted score <= 0.4018\ngini = 0.999\nsamples = 982\nvalue = [1, 1, 1 ..., 0, 0, 1]\nclass = gi|30407128|emb|AL646053.1|-22"] ;
662 -> 664 ;
665 [label="gini = 0.5\nsamples = 2\nvalue = [0, 0, 0 ..., 0, 0, 0]\nclass = gi|937314366|gb|CP012831.1|-49"] ;
664 -> 665 ;
666 [label="adjusted score <= 0.4021\ngini = 0.999\nsamples = 980\nvalue = [1, 1, 1 ..., 0, 0, 1]\nclass = gi|30407128|emb|AL646053.1|-22"] ;
664 -> 666 ;
667 [label="gini = 0.0\nsamples = 1\nvalue = [0, 0, 0 ..., 0, 0, 0]\nclass = gi|520999024|gb|CP003969.1|-80"] ;
666 -> 667 ;
668 [label="adjusted score <= 0.4026\ngini = 0.999\nsamples = 979\nvalue = [1, 1, 1 ..., 0, 0, 1]\nclass = gi|30407128|emb|AL646053.1|-22"] ;
666 -> 668 ;
669 [label="gini = 0.0\nsamples = 1\nvalue = [0, 0, 0 ..., 0, 0, 1]\nclass = gi|951301122|gb|CP013140.1|-39"] ;
668 -> 669 ;
670 [label="adjusted score <= 0.403\ngini = 0.999\nsamples = 978\nvalue = [1, 1, 1 ..., 0, 0, 0]\nclass = gi|30407128|emb|AL646053.1|-22"] ;
668 -> 670 ;
671 [label="gini = 0.0\nsamples = 1\nvalue = [0, 0, 0 ..., 0, 0, 0]\nclass = gi|520999024|gb|CP003969.1|-48"] ;
670 -> 671 ;
672 [label="adjusted score <= 0.4033\ngini = 0.999\nsamples = 977\nvalue = [1, 1, 1 ..., 0, 0, 0]\nclass = gi|30407128|emb|AL646053.1|-22"] ;
670 -> 672 ;
673 [label="gini = 0.0\nsamples = 1\nvalue = [0, 1, 0 ..., 0, 0, 0]\nclass = gi|951301122|gb|CP013140.1|-78"] ;
672 -> 673 ;
674 [label="adjusted score <= 0.4035\ngini = 0.999\nsamples = 976\nvalue = [1, 0, 1 ..., 0, 0, 0]\nclass = gi|30407128|emb|AL646053.1|-22"] ;
672 -> 674 ;
675 [label="gini = 0.0\nsamples = 1\nvalue = [0, 0, 0 ..., 0, 0, 0]\nclass = gi|347668095|gb|JN596952.1|-34"] ;
674 -> 675 ;
676 [label="adjusted score <= 0.4038\ngini = 0.999\nsamples = 975\nvalue = [1, 0, 1 ..., 0, 0, 0]\nclass = gi|30407128|emb|AL646053.1|-22"] ;
674 -> 676 ;
677 [label="gini = 0.6667\nsamples = 3\nvalue = [0, 0, 0 ..., 0, 0, 0]\nclass = gi|951306652|gb|CP013141.1|-71"] ;
676 -> 677 ;
678 [label="adjusted score <= 0.405\ngini = 0.999\nsamples = 972\nvalue = [1, 0, 1 ..., 0, 0, 0]\nclass = gi|30407128|emb|AL646053.1|-22"] ;
676 -> 678 ;
679 [label="gini = 0.5\nsamples = 2\nvalue = [0, 0, 0 ..., 0, 0, 0]\nclass = gi|578005119|gb|CP007155.1|-14"] ;
678 -> 679 ;
680 [label="adjusted score <= 0.4066\ngini = 0.999\nsamples = 970\nvalue = [1, 0, 1 ..., 0, 0, 0]\nclass = gi|30407128|emb|AL646053.1|-22"] ;
678 -> 680 ;
681 [label="gini = 0.5\nsamples = 2\nvalue = [0, 0, 0 ..., 0, 0, 0]\nclass = gi|83773738|dbj|AP007169.1|-1"] ;
680 -> 681 ;
682 [label="adjusted score <= 0.4072\ngini = 0.999\nsamples = 968\nvalue = [1, 0, 1 ..., 0, 0, 0]\nclass = gi|30407128|emb|AL646053.1|-22"] ;
680 -> 682 ;
683 [label="gini = 0.0\nsamples = 1\nvalue = [0, 0, 0 ..., 0, 0, 0]\nclass = gi|951715918|gb|CP011131.1|-8"] ;
682 -> 683 ;
684 [label="adjusted score <= 0.4077\ngini = 0.999\nsamples = 967\nvalue = [1, 0, 1 ..., 0, 0, 0]\nclass = gi|30407128|emb|AL646053.1|-22"] ;
682 -> 684 ;
685 [label="gini = 0.0\nsamples = 1\nvalue = [0, 0, 0 ..., 0, 0, 0]\nclass = gi|772904020|gb|CP009323.1|-8"] ;
684 -> 685 ;
686 [label="adjusted score <= 0.4081\ngini = 0.999\nsamples = 966\nvalue = [1, 0, 1 ..., 0, 0, 0]\nclass = gi|30407128|emb|AL646053.1|-22"] ;
684 -> 686 ;
687 [label="gini = 0.8571\nsamples = 7\nvalue = [0, 0, 0 ..., 0, 0, 0]\nclass = gi|30407128|emb|AL646053.1|-17"] ;
686 -> 687 ;
688 [label="adjusted score <= 0.4085\ngini = 0.999\nsamples = 959\nvalue = [1, 0, 1 ..., 0, 0, 0]\nclass = gi|30407128|emb|AL646053.1|-22"] ;
686 -> 688 ;
689 [label="gini = 0.0\nsamples = 1\nvalue = [0, 0, 0 ..., 0, 0, 0]\nclass = gi|951715918|gb|CP011131.1|-65"] ;
688 -> 689 ;
690 [label="adjusted score <= 0.4088\ngini = 0.999\nsamples = 958\nvalue = [1, 0, 1 ..., 0, 0, 0]\nclass = gi|30407128|emb|AL646053.1|-22"] ;
688 -> 690 ;
691 [label="gini = 0.0\nsamples = 1\nvalue = [0, 0, 0 ..., 0, 0, 0]\nclass = gi|951715918|gb|CP011131.1|-70"] ;
690 -> 691 ;
692 [label="adjusted score <= 0.4091\ngini = 0.999\nsamples = 957\nvalue = [1, 0, 1 ..., 0, 0, 0]\nclass = gi|30407128|emb|AL646053.1|-22"] ;
690 -> 692 ;
693 [label="gini = 0.0\nsamples = 1\nvalue = [0, 0, 0 ..., 0, 0, 0]\nclass = gi|755895103|gb|CP002580.1|-6"] ;
692 -> 693 ;
694 [label="adjusted score <= 0.4093\ngini = 0.999\nsamples = 956\nvalue = [1, 0, 1 ..., 0, 0, 0]\nclass = gi|30407128|emb|AL646053.1|-22"] ;
692 -> 694 ;
695 [label="gini = 0.0\nsamples = 1\nvalue = [0, 0, 0 ..., 0, 0, 0]\nclass = gi|951306652|gb|CP013141.1|-45"] ;
694 -> 695 ;
696 [label="adjusted score <= 0.4095\ngini = 0.999\nsamples = 955\nvalue = [1, 0, 1 ..., 0, 0, 0]\nclass = gi|30407128|emb|AL646053.1|-22"] ;
694 -> 696 ;
697 [label="gini = 0.0\nsamples = 1\nvalue = [0, 0, 0 ..., 0, 0, 0]\nclass = gi|937314366|gb|CP012831.1|-16"] ;
696 -> 697 ;
698 [label="adjusted score <= 0.4098\ngini = 0.999\nsamples = 954\nvalue = [1, 0, 1 ..., 0, 0, 0]\nclass = gi|30407128|emb|AL646053.1|-22"] ;
696 -> 698 ;
699 [label="gini = 0.75\nsamples = 4\nvalue = [0, 0, 0 ..., 0, 0, 0]\nclass = gi|689271676|gb|CP003811.1|-29"] ;
698 -> 699 ;
700 [label="adjusted score <= 0.4101\ngini = 0.9989\nsamples = 950\nvalue = [1, 0, 1 ..., 0, 0, 0]\nclass = gi|30407128|emb|AL646053.1|-22"] ;
698 -> 700 ;
701 [label="gini = 0.0\nsamples = 1\nvalue = [0, 0, 0 ..., 0, 0, 0]\nclass = gi|951306652|gb|CP013141.1|-51"] ;
700 -> 701 ;
702 [label="adjusted score <= 0.4103\ngini = 0.9989\nsamples = 949\nvalue = [1, 0, 1 ..., 0, 0, 0]\nclass = gi|30407128|emb|AL646053.1|-22"] ;
700 -> 702 ;
703 [label="gini = 0.0\nsamples = 1\nvalue = [0, 0, 0 ..., 0, 0, 0]\nclass = gi|347668095|gb|JN596952.1|-21"] ;
702 -> 703 ;
704 [label="adjusted score <= 0.4108\ngini = 0.9989\nsamples = 948\nvalue = [1, 0, 1 ..., 0, 0, 0]\nclass = gi|30407128|emb|AL646053.1|-22"] ;
702 -> 704 ;
705 [label="gini = 0.5\nsamples = 2\nvalue = [0, 0, 0 ..., 0, 0, 0]\nclass = gi|520999024|gb|CP003969.1|-43"] ;
704 -> 705 ;
706 [label="adjusted score <= 0.4113\ngini = 0.9989\nsamples = 946\nvalue = [1, 0, 1 ..., 0, 0, 0]\nclass = gi|30407128|emb|AL646053.1|-22"] ;
704 -> 706 ;
707 [label="gini = 0.5\nsamples = 2\nvalue = [0, 0, 0 ..., 0, 0, 0]\nclass = gi|578005119|gb|CP007155.1|-47"] ;
706 -> 707 ;
708 [label="adjusted score <= 0.4117\ngini = 0.9989\nsamples = 944\nvalue = [1, 0, 1 ..., 0, 0, 0]\nclass = gi|30407128|emb|AL646053.1|-22"] ;
706 -> 708 ;
709 [label="gini = 0.0\nsamples = 1\nvalue = [0, 0, 0 ..., 0, 0, 0]\nclass = gi|941149846|gb|CP007212.1|-10"] ;
708 -> 709 ;
